-1.808835566043853760e-01, 3.705802559852600098e-02, -1.917071342468261719e-01, 1.014307960867881775e-01, -3.574825078248977661e-02, -7.613718509674072266e-03, 1.687231659889221191e-01, 1.865537315607070923e-01, 9.328097105026245117e-02, 2.837065979838371277e-02, -1.250168085098266602e-01, -1.451946049928665161e-01, 3.266187757253646851e-02, 1.122802719473838806e-01, 1.713393628597259521e-01, -2.131495177745819092e-01, -8.713562041521072388e-02, -3.663500770926475525e-02, -1.413243412971496582e-01, -1.151984781026840210e-01, 1.107015907764434814e-01, 1.047406867146492004e-01, 6.918814033269882202e-02, -1.454804092645645142e-01, 1.422801762819290161e-01, 1.745298802852630615e-01, 1.532995849847793579e-01, 6.666162610054016113e-02, 1.408544182777404785e-01, 1.094847321510314941e-01, -1.491236388683319092e-01, -1.566362977027893066e-01
1.705812364816665649e-01, -5.167125537991523743e-02, 1.957274526357650757e-01, 6.322418898344039917e-02, 3.862585127353668213e-02, 1.186295747756958008e-01, -1.481335908174514771e-01, 1.420309394598007202e-01, 3.325715661048889160e-02, 1.117866933345794678e-01, -8.664384484291076660e-02, -1.427801996469497681e-01, -1.262479275465011597e-01, -9.517389535903930664e-02, -7.446841895580291748e-02, -2.155692502856254578e-02, 5.609137192368507385e-02, -7.994236052036285400e-02, -9.706808626651763916e-02, 5.064299702644348145e-02, -1.322808265686035156e-01, 9.115464985370635986e-02, -1.941687911748886108e-01, 3.273310512304306030e-02, 1.712758690118789673e-01, 1.735322326421737671e-01, -3.670394420623779297e-02, -2.030340582132339478e-01, -3.624139726161956787e-02, -7.007203251123428345e-02, -2.000383883714675903e-01, -8.736924082040786743e-02
1.926344186067581177e-01, -9.945417754352092743e-03, 3.567896410822868347e-02, 1.292569339275360107e-01, 9.786468744277954102e-02, 5.142730474472045898e-02, 1.318468302488327026e-01, 2.762842550873756409e-02, -8.547198772430419922e-02, -1.837066560983657837e-01, -1.526802033185958862e-01, 1.452949345111846924e-01, -4.920033365488052368e-02, 1.606115996837615967e-01, -9.263044595718383789e-02, 2.861786074936389923e-02, 1.634834110736846924e-01, -9.761145338416099548e-03, 2.138669192790985107e-01, 1.933105289936065674e-01, 1.289618313312530518e-01, 1.656104773283004761e-01, 3.280070424079895020e-02, -9.319847077131271362e-02, -4.980340972542762756e-02, 4.010870680212974548e-02, 1.182097867131233215e-01, -2.113211452960968018e-01, -7.361385971307754517e-02, 1.812099963426589966e-01, 1.487636268138885498e-01, -1.418232172727584839e-01
4.448470473289489746e-02, 2.449265681207180023e-03, 6.627135723829269409e-02, 1.785748600959777832e-01, -1.631422527134418488e-02, 6.037595868110656738e-02, 1.259349733591079712e-01, 9.362547658383846283e-03, -1.676267087459564209e-01, 1.267164647579193115e-01, 1.544263809919357300e-01, -1.223522350192070007e-01, 1.730653345584869385e-01, 6.574098765850067139e-02, 1.610656827688217163e-01, -3.241523355245590210e-02, 1.414187066256999969e-02, -9.280005097389221191e-02, 1.009563431143760681e-01, -1.299094855785369873e-01, 1.072814837098121643e-01, 1.167992874979972839e-02, -7.656337320804595947e-02, -2.523330785334110260e-02, -1.870904266834259033e-01, 2.196281217038631439e-02, -1.320221722126007080e-01, -1.480261683464050293e-01, -1.492360681295394897e-01, 2.153661251068115234e-01, -7.428783178329467773e-02, 1.077263280749320984e-01
-5.172881111502647400e-02, 2.170947343111038208e-01, 4.605334624648094177e-02, 4.599615931510925293e-02, -1.525188982486724854e-01, 1.620270013809204102e-01, -9.464284777641296387e-02, 9.390199184417724609e-02, -3.864321112632751465e-02, -3.672828152775764465e-02, -1.325721591711044312e-01, -4.745097830891609192e-03, -2.061015516519546509e-01, -1.025510057806968689e-01, -2.002884745597839355e-01, 1.771629899740219116e-01, 4.073619470000267029e-02, -1.328948289155960083e-01, 1.560188978910446167e-01, 1.331716775894165039e-04, -1.176398694515228271e-01, 1.830526292324066162e-01, 1.406282037496566772e-01, -2.015944942831993103e-02, -1.490683853626251221e-01, 1.262423233129084110e-03, 1.478462964296340942e-01, 1.725837886333465576e-01, 2.050340324640274048e-01, 1.078057289123535156e-01, 8.007368445396423340e-02, -9.675254672765731812e-02
1.965421587228775024e-01, -1.636070609092712402e-01, 1.544618513435125351e-02, 2.048489749431610107e-01, -5.916108191013336182e-02, 1.893872618675231934e-01, 9.865088015794754028e-02, -1.459752768278121948e-01, 1.858330070972442627e-01, 7.928916066884994507e-02, -1.563392132520675659e-01, -8.687697350978851318e-02, -1.527139097452163696e-01, 1.240003630518913269e-01, -1.377584636211395264e-01, 9.543526917695999146e-02, -2.357869148254394531e-01, 2.626705728471279144e-02, 1.984798312187194824e-01, -1.305458247661590576e-01, 1.271841526031494141e-01, 5.866856500506401062e-02, 9.079398214817047119e-02, -2.039709538221359253e-01, 1.389561295509338379e-01, 1.277484744787216187e-01, 1.299461126327514648e-01, -1.071536540985107422e-01, -1.249042004346847534e-01, -6.620608270168304443e-02, -4.974809661507606506e-02, 2.588177658617496490e-02
-1.401412952691316605e-02, -2.012530416250228882e-01, -1.829767823219299316e-01, -7.804043591022491455e-02, 1.511193215847015381e-01, 8.872339129447937012e-02, 8.574654161930084229e-02, 1.336364448070526123e-01, 1.607718765735626221e-01, 4.238721355795860291e-02, -1.793955564498901367e-01, -1.785976290702819824e-01, -2.017457485198974609e-01, -1.194154396653175354e-01, 2.004378437995910645e-01, 6.508867442607879639e-02, 1.347958669066429138e-02, -1.034116819500923157e-01, 3.230068460106849670e-02, 7.095357775688171387e-02, -6.083279848098754883e-02, 1.939479708671569824e-01, 9.920343756675720215e-02, 1.563940346240997314e-01, 3.143236413598060608e-02, 7.614234834909439087e-02, -1.798096746206283569e-01, 3.773298859596252441e-02, 4.054447636008262634e-02, 1.690365374088287354e-01, -2.156310230493545532e-01, 2.143448684364557266e-03
5.391107499599456787e-02, 3.751778230071067810e-02, -1.634270548820495605e-01, 1.998024135828018188e-01, -1.365552842617034912e-01, -7.530716061592102051e-02, 1.137531623244285583e-01, 1.880928575992584229e-01, -2.077194601297378540e-01, 2.430681139230728149e-02, -9.318903088569641113e-02, 2.794119343161582947e-02, -1.010980829596519470e-01, 1.528252959251403809e-01, -5.980925634503364563e-02, 1.909127235412597656e-01, 6.608805060386657715e-02, -9.760059416294097900e-02, 1.379506587982177734e-01, 1.729492545127868652e-01, 6.431251764297485352e-02, -4.633070528507232666e-02, -6.156407669186592102e-02, 2.110285907983779907e-01, -1.192489266395568848e-01, 1.018867790699005127e-01, -1.075433269143104553e-01, -1.096211373805999756e-02, 5.817962810397148132e-02, -1.668301969766616821e-01, 9.974538534879684448e-02, 2.589852362871170044e-02
-6.838887184858322144e-02, 4.266023263335227966e-02, -7.111629005521535873e-03, -5.060126259922981262e-02, -1.973746418952941895e-01, -3.202074766159057617e-02, 9.795346111059188843e-02, 2.012614905834197998e-01, -5.181515216827392578e-02, -4.485499486327171326e-02, 1.858202069997787476e-01, -1.098001096397638321e-02, -2.143421769142150879e-02, 2.145728915929794312e-01, -1.746340095996856689e-01, -8.090133778750896454e-03, 7.015529274940490723e-02, 1.093179825693368912e-02, -1.568079888820648193e-01, -2.090788781642913818e-01, 1.157155409455299377e-01, -1.528251022100448608e-01, 2.848511561751365662e-02, 2.044069021940231323e-01, 1.977381110191345215e-01, -8.478794991970062256e-02, 1.942252218723297119e-01, 6.428673863410949707e-02, -1.871070452034473419e-02, -1.070943176746368408e-01, -8.627016097307205200e-02, -1.555133797228336334e-02
-1.090235412120819092e-01, -1.207713186740875244e-01, -1.654394343495368958e-02, -3.369328007102012634e-02, -1.987997069954872131e-02, -1.311917006969451904e-01, -1.079910472035408020e-01, 7.432892918586730957e-02, -1.873809546232223511e-01, 1.572721302509307861e-01, 7.451618090271949768e-03, 4.082592949271202087e-02, 1.881390661001205444e-01, 1.739243865013122559e-01, -5.070902407169342041e-02, 8.113102614879608154e-02, 7.558470591902732849e-03, 2.094644606113433838e-01, 5.467420443892478943e-02, 1.053656637668609619e-01, -4.509282484650611877e-02, 1.675947569310665131e-02, 2.443749457597732544e-02, -1.650124490261077881e-01, 4.802402853965759277e-02, -1.623467355966567993e-02, -7.663867622613906860e-02, -2.083829492330551147e-01, 5.287029594182968140e-02, -4.755209013819694519e-02, -6.406189501285552979e-02, -1.086512431502342224e-01
-2.116191238164901733e-01, -8.242839574813842773e-02, 1.175649091601371765e-02, -7.006861269474029541e-02, -1.482250988483428955e-01, -8.649475872516632080e-02, -1.405628174543380737e-01, 3.722465783357620239e-02, 2.715632319450378418e-02, 3.270899131894111633e-02, -2.156102210283279419e-01, 6.986381113529205322e-02, 1.728996038436889648e-01, -1.730101406574249268e-01, -2.205880582332611084e-01, 4.841579124331474304e-02, 6.233766674995422363e-02, 1.976605504751205444e-01, -1.371645480394363403e-01, 1.853989362716674805e-01, -1.855844259262084961e-01, -1.870158314704895020e-01, -5.804792791604995728e-02, 1.703269034624099731e-01, 7.238343358039855957e-02, -1.642914414405822754e-01, 9.740899503231048584e-02, -2.445526421070098877e-02, -8.350356668233871460e-02, -2.165422886610031128e-01, -1.332082003355026245e-01, -1.268896460533142090e-01
1.974187046289443970e-02, -4.008745774626731873e-02, -2.330305576324462891e-01, -1.245046332478523254e-01, 1.655791699886322021e-02, 1.520240604877471924e-01, -1.239118054509162903e-01, 6.368116289377212524e-02, -1.102198809385299683e-01, -2.102565318346023560e-01, 1.405056118965148926e-01, 1.845603808760643005e-02, 6.519738584756851196e-02, -7.599669694900512695e-02, 5.651698634028434753e-02, 4.430355131626129150e-02, 1.369635313749313354e-01, 1.447172760963439941e-01, -1.663336344063282013e-02, 1.611055433750152588e-01, 1.577885150909423828e-01, 2.090334147214889526e-01, 7.761886715888977051e-02, 1.094996035099029541e-01, -1.183047071099281311e-01, -1.708095148205757141e-02, 3.373917192220687866e-02, 1.589684486389160156e-01, 2.505560815334320068e-01, -1.928329765796661377e-01, 1.633145958185195923e-01, 1.306640505790710449e-01
-1.839816197752952576e-02, 1.895267516374588013e-01, -1.574118994176387787e-02, 1.472244262695312500e-01, -1.160985007882118225e-01, 2.075181305408477783e-01, 1.964087188243865967e-01, 1.040605232119560242e-01, -9.578367322683334351e-02, 1.262472420930862427e-01, 7.951968908309936523e-02, -6.738330703228712082e-03, -1.893986202776432037e-02, 4.822048172354698181e-02, 5.858049541711807251e-02, -7.706273347139358521e-02, -6.172703579068183899e-02, 9.426170028746128082e-03, 8.541678637266159058e-02, -1.190792694687843323e-01, -1.934929788112640381e-01, 1.524081639945507050e-02, -7.636790722608566284e-02, 1.894326359033584595e-01, 8.083693683147430420e-02, -6.767717748880386353e-02, 1.306947767734527588e-01, 1.557798087596893311e-01, -2.748284116387367249e-02, 1.170032545924186707e-01, 7.597760856151580811e-02, 7.117538154125213623e-02
8.683790266513824463e-02, -8.759288489818572998e-02, -1.091184839606285095e-01, -7.211119681596755981e-02, -9.694340080022811890e-02, -1.216916814446449280e-01, 8.965105563402175903e-02, 2.096568942070007324e-01, -1.132786422967910767e-01, -1.308431923389434814e-01, -1.986478269100189209e-01, -1.453308910131454468e-01, -6.555601954460144043e-02, -3.055598586797714233e-02, -1.128674745559692383e-01, 5.720759183168411255e-02, -1.381880939006805420e-01, 2.970758080482482910e-02, 4.245142266154289246e-02, 1.526984572410583496e-02, 2.960293926298618317e-02, -6.279350054683163762e-05, -1.634575277566909790e-01, -1.269546151161193848e-01, -1.630517244338989258e-01, 1.732142418622970581e-01, -7.783895730972290039e-02, 8.690226078033447266e-02, -5.453355610370635986e-02, 6.381764262914657593e-02, -2.304488234221935272e-02, -8.281561313197016716e-04
4.242640361189842224e-02, -1.824151128530502319e-01, -1.510954499244689941e-01, -1.682113707065582275e-01, -1.413720995187759399e-01, -1.986032128334045410e-01, -1.478248834609985352e-01, 2.052953243255615234e-01, -1.661242395639419556e-01, 3.687699884176254272e-02, -1.671272069215774536e-01, -1.075864732265472412e-01, 6.711395829916000366e-02, -4.197408258914947510e-02, 1.496013849973678589e-01, -1.632990241050720215e-01, -1.116105467081069946e-01, 1.628813445568084717e-01, -7.422690838575363159e-02, 1.886907517910003662e-01, 1.059367060661315918e-01, -7.200659066438674927e-02, -1.255421433597803116e-02, 1.519636511802673340e-01, 1.549405157566070557e-01, 1.965194493532180786e-01, -2.256552688777446747e-02, 3.427062928676605225e-02, 2.128324210643768311e-01, 1.583711951971054077e-01, 1.613611280918121338e-01, 5.470500513911247253e-02
4.805463179945945740e-02, -8.303038775920867920e-02, -7.771950960159301758e-02, -1.553141418844461441e-02, -4.094975814223289490e-02, 4.235926270484924316e-02, 1.447821110486984253e-01, 1.571036726236343384e-01, 1.835044920444488525e-01, -2.624074742197990417e-02, 4.083094000816345215e-02, 2.243203073740005493e-01, 1.400517076253890991e-01, -4.915095120668411255e-02, 1.329588592052459717e-01, -1.441677957773208618e-01, -8.613583631813526154e-03, 1.449547111988067627e-01, 1.425485312938690186e-01, -2.079204469919204712e-01, -4.081333428621292114e-02, 7.838410884141921997e-02, -3.351861238479614258e-02, -1.246013343334197998e-01, 6.547182798385620117e-02, -1.574851572513580322e-01, 1.896132677793502808e-01, -1.722071319818496704e-01, 1.897032111883163452e-01, 1.449598073959350586e-01, -1.072031930088996887e-01, -5.334997922182083130e-02
-2.146091498434543610e-02, 1.970688998699188232e-01, 1.343868523836135864e-01, 3.268205747008323669e-02, -5.184128507971763611e-02, -1.091385036706924438e-01, -2.301024943590164185e-01, 1.720349676907062531e-02, 6.871670484542846680e-02, 1.009380146861076355e-01, -2.088048681616783142e-02, -1.743671149015426636e-01, 9.861017577350139618e-03, -1.066105216741561890e-01, -2.099417448043823242e-01, -7.035099714994430542e-02, 1.606636941432952881e-01, -1.650985181331634521e-01, -1.064244732260704041e-01, 1.149674057960510254e-01, -1.881939470767974854e-01, 7.594305276870727539e-02, -1.480029057711362839e-02, -1.972423791885375977e-01, 7.279059290885925293e-02, -5.183437094092369080e-02, 2.193797379732131958e-03, 1.452907919883728027e-03, 2.741298824548721313e-02, 5.064319446682929993e-02, -3.543933108448982239e-02, -1.404745280742645264e-01
-1.018714755773544312e-01, 9.076429530978202820e-03, -1.141655594110488892e-01, -1.785267889499664307e-01, 9.907118976116180420e-02, -1.078540012240409851e-01, -9.523643553256988525e-02, 1.711738854646682739e-01, -1.818963885307312012e-01, 4.604140296578407288e-02, 2.787209302186965942e-02, -6.647485494613647461e-02, 1.981587111949920654e-01, 7.195385545492172241e-02, 5.218471400439739227e-03, -1.694463044404983521e-01, 1.082783341407775879e-01, -8.940599113702774048e-02, 1.464242637157440186e-01, -1.988743245601654053e-02, 1.163183599710464478e-01, -7.453376799821853638e-02, -2.251237481832504272e-01, 9.281825274229049683e-02, -2.079558074474334717e-01, 1.550285071134567261e-01, -1.354424357414245605e-01, 2.126844823360443115e-01, -1.249568238854408264e-01, -1.693291515111923218e-01, -2.053995281457901001e-01, 1.112685799598693848e-01
-1.962392628192901611e-01, 9.230138361454010010e-02, -8.993792533874511719e-02, -1.083682104945182800e-01, -5.243255943059921265e-02, -2.396717667579650879e-02, 5.065400525927543640e-02, -1.854311823844909668e-01, -9.076161682605743408e-02, 9.908200800418853760e-02, -1.872268766164779663e-01, 1.217532157897949219e-01, 3.567505255341529846e-02, -1.770636886358261108e-01, -1.866771578788757324e-01, 1.834754273295402527e-02, -1.204343885183334351e-01, -1.922160685062408447e-01, 1.236932128667831421e-01, 1.224725842475891113e-01, 2.095284014940261841e-01, -1.406596750020980835e-01, 8.879895508289337158e-02, 5.617767199873924255e-02, 7.100325077772140503e-02, 6.605404615402221680e-02, 1.592321991920471191e-01, -1.543229818344116211e-02, -7.120303809642791748e-02, -9.822916239500045776e-02, 8.356777578592300415e-02, 2.102674990892410278e-01
1.705667078495025635e-01, 5.755576491355895996e-02, 1.555368751287460327e-01, -1.673630774021148682e-01, 1.112269610166549683e-01, -2.062812894582748413e-01, -1.374996751546859741e-01, -4.890740290284156799e-02, 5.442771315574645996e-02, 2.168387472629547119e-01, 1.881861686706542969e-01, 1.292326003313064575e-01, 1.570209711790084839e-01, 8.752660453319549561e-02, 2.479884214699268341e-02, -1.412613689899444580e-01, -1.942646205425262451e-01, -1.169880330562591553e-01, 9.700211696326732635e-03, -1.537986397743225098e-01, 9.167637676000595093e-02, 1.517095118761062622e-01, -6.991951912641525269e-02, 1.241380795836448669e-01, -1.191256009042263031e-02, -1.306566148996353149e-01, -1.961383670568466187e-01, 1.636469960212707520e-01, 1.664101034402847290e-01, 4.935097694396972656e-02, -1.222764924168586731e-01, 1.882372051477432251e-01
1.952860355377197266e-01, -1.597622632980346680e-01, -6.914988905191421509e-02, -7.739855349063873291e-02, 1.732257604598999023e-01, -3.009130060672760010e-02, 1.540628969669342041e-01, 2.057175189256668091e-01, 6.569617986679077148e-02, 1.062192618846893311e-01, -1.624493300914764404e-01, -5.638320371508598328e-02, -1.554663628339767456e-01, 1.494306027889251709e-01, 4.660461843013763428e-02, 1.817944198846817017e-01, -4.321121051907539368e-02, 1.563159376382827759e-02, -1.439038068056106567e-01, -1.295873522758483887e-01, -3.269312530755996704e-02, -1.556943915784358978e-02, -1.723525673151016235e-01, -1.646944135427474976e-02, -8.440086990594863892e-02, 1.693770289421081543e-01, 1.627955436706542969e-01, 1.749145388603210449e-01, 7.245130091905593872e-02, 2.008505463600158691e-01, -8.427182585000991821e-02, -1.586683094501495361e-02
-7.185916602611541748e-02, 3.267677500844001770e-02, 1.809662394225597382e-02, 2.037747055292129517e-01, 7.437299937009811401e-03, -1.361616849899291992e-01, -1.264370083808898926e-01, 8.611556887626647949e-02, -1.135228797793388367e-01, 2.151850163936614990e-01, -1.604353934526443481e-01, -8.749969303607940674e-02, -1.088332831859588623e-01, -1.220323028974235058e-03, 2.056111097335815430e-01, 5.402978044003248215e-03, -9.801140427589416504e-02, -2.077294327318668365e-02, 1.249380856752395630e-01, -8.614820241928100586e-02, 1.149184629321098328e-01, -6.774619221687316895e-02, -7.479800842702388763e-03, 1.755639910697937012e-01, -8.658625185489654541e-02, 4.613799974322319031e-02, -3.581674396991729736e-02, 1.536556482315063477e-01, 5.819401890039443970e-02, 2.082702703773975372e-02, -5.187378451228141785e-02, 1.934170573949813843e-01
1.650272011756896973e-01, 2.185199111700057983e-01, 2.255535311996936798e-02, -1.340024769306182861e-01, 1.621416360139846802e-01, -9.106878936290740967e-02, -1.447095274925231934e-01, -1.637855917215347290e-01, 2.109290659427642822e-01, 1.462014466524124146e-01, 1.887092590332031250e-01, 1.647145152091979980e-01, -7.231374084949493408e-02, -1.999512314796447754e-01, -1.779708117246627808e-01, -4.680985584855079651e-03, -1.509492993354797363e-01, -1.467698216438293457e-01, 9.524000436067581177e-02, -3.389671444892883301e-03, -2.602516673505306244e-02, 1.804383099079132080e-01, 4.715998470783233643e-02, 5.300257354974746704e-02, -1.993349939584732056e-01, 1.294698845595121384e-02, -1.436956971883773804e-01, -1.552096456289291382e-01, -8.794178813695907593e-02, -7.136393338441848755e-02, 7.124356180429458618e-02, 7.121644169092178345e-02
1.919280588626861572e-01, 2.083684653043746948e-01, 6.294775009155273438e-02, 1.933525502681732178e-01, 7.588445395231246948e-02, 1.969396173954010010e-01, -1.472353488206863403e-01, 4.851959645748138428e-03, 1.238988637924194336e-01, 4.556133970618247986e-02, -1.302159875631332397e-01, 9.430474042892456055e-02, 1.907762885093688965e-01, -2.302837930619716644e-02, -1.944490671157836914e-01, -1.684988290071487427e-01, -4.737780988216400146e-02, -2.083556950092315674e-01, 1.713287085294723511e-01, -5.493053793907165527e-02, 1.194022521376609802e-01, -1.147280111908912659e-01, -2.540826611220836639e-02, 1.373798400163650513e-01, 1.521640717983245850e-01, -3.885715082287788391e-02, 2.032916247844696045e-01, -1.097197532653808594e-01, 5.311640352010726929e-02, 1.374610662460327148e-01, 2.160983085632324219e-01, 3.864952549338340759e-02
6.965067237615585327e-02, -9.733617305755615234e-02, 8.232244849205017090e-02, -1.497482359409332275e-01, 8.584498614072799683e-02, 6.026467680931091309e-02, -4.946049302816390991e-02, 1.595297753810882568e-01, 7.384780049324035645e-02, -1.414810121059417725e-01, 3.299657255411148071e-02, -1.733482927083969116e-01, 2.196480184793472290e-01, -3.971177618950605392e-03, 2.173968553543090820e-01, 1.003357321023941040e-01, 2.846034476533532143e-03, 1.539213657379150391e-01, -2.014142833650112152e-02, 7.616296410560607910e-02, -2.883353643119335175e-02, -1.651592701673507690e-01, 6.084193661808967590e-02, 2.223596721887588501e-01, -9.071496874094009399e-02, -2.080310285091400146e-01, 1.809593439102172852e-01, -1.062551140785217285e-01, -1.030725315213203430e-01, 5.845025181770324707e-02, -1.142926886677742004e-01, 1.590083390474319458e-01
4.546225070953369141e-03, 7.979478687047958374e-02, 4.811165109276771545e-02, -1.568048894405364990e-01, 8.754677325487136841e-02, 1.639679968357086182e-01, 1.488977521657943726e-01, 1.843442618846893311e-01, 2.005090415477752686e-01, -1.677905917167663574e-01, 9.481880813837051392e-02, -5.237834900617599487e-02, 2.681655809283256531e-02, -2.070175260305404663e-01, 4.427769035100936890e-02, 1.436056802049279213e-03, -1.711028963327407837e-01, -6.403876841068267822e-02, -6.395984441041946411e-02, -1.284452974796295166e-01, 1.985912621021270752e-01, 6.046615168452262878e-02, -2.296614944934844971e-01, 1.260996907949447632e-01, -2.186775207519531250e-01, -5.360682308673858643e-02, -1.971685588359832764e-01, 7.185950875282287598e-02, -8.206603676080703735e-02, -1.747727990150451660e-01, 9.839251637458801270e-02, -1.755546629428863525e-01
3.268072381615638733e-02, -1.714928895235061646e-01, 1.266759485006332397e-01, -1.926646679639816284e-01, -3.888675477355718613e-03, -1.106321737170219421e-01, -1.094171106815338135e-01, 1.595850102603435516e-02, -5.622464418411254883e-02, -4.688455536961555481e-02, 8.968069404363632202e-02, 2.155775427818298340e-01, -2.244010567665100098e-01, -1.274671405553817749e-01, -2.281127274036407471e-01, -5.030421167612075806e-02, 5.970329791307449341e-02, 1.755354255437850952e-01, 1.807709336280822754e-01, 1.078841984272003174e-01, 7.620440423488616943e-02, -1.807594299316406250e-01, 1.834619492292404175e-01, 1.328996568918228149e-01, -1.882779300212860107e-01, 1.954215019941329956e-01, -8.596241474151611328e-02, -5.272656679153442383e-03, -6.625381112098693848e-02, 1.395276039838790894e-01, -1.841053068637847900e-01, -1.346238404512405396e-01
1.175452396273612976e-01, 6.844640523195266724e-02, 4.775338247418403625e-02, -1.281334906816482544e-01, 1.263042539358139038e-01, 1.832605898380279541e-02, 1.634336709976196289e-01, -8.823485672473907471e-02, 2.004138231277465820e-01, 5.684693157672882080e-02, -1.944460123777389526e-01, 1.705372482538223267e-01, -1.048468947410583496e-01, 1.415211111307144165e-01, -8.759552985429763794e-02, -1.302988678216934204e-01, -7.987794280052185059e-02, -1.742166429758071899e-01, 4.810478910803794861e-02, 4.851454496383666992e-02, 9.311424195766448975e-02, 8.019448071718215942e-02, -9.993177838623523712e-03, 7.497485261410474777e-03, -5.465348437428474426e-02, 3.465384989976882935e-02, -1.080436818301677704e-02, 1.379573047161102295e-01, 3.123975475318729877e-04, -1.019480526447296143e-01, 1.803670972585678101e-01, -1.480575948953628540e-01
1.282881200313568115e-01, 1.679118722677230835e-01, -7.430854439735412598e-02, 6.327303498983383179e-02, 7.125819474458694458e-02, 1.397154331207275391e-01, -1.985738724470138550e-01, 6.115971598774194717e-03, 1.015872955322265625e-01, -2.827556058764457703e-02, -2.269619107246398926e-01, -1.639719158411026001e-01, 4.558132961392402649e-02, 4.109707102179527283e-02, 1.356512904167175293e-01, -7.790787611156702042e-03, 2.539303302764892578e-01, 1.819288730621337891e-02, 4.713475704193115234e-02, 1.478984355926513672e-01, -6.576914805918931961e-03, 1.266709864139556885e-01, 8.345526456832885742e-02, -1.266167163848876953e-01, -1.104729175567626953e-01, 2.341477125883102417e-01, 1.064910739660263062e-01, -1.893947273492813110e-01, -1.293195635080337524e-01, 4.495291039347648621e-02, -2.052801847457885742e-02, -4.763759672641754150e-02
-1.870233863592147827e-01, -3.717829659581184387e-02, -2.278626896440982819e-02, 4.259354248642921448e-02, -8.741862326860427856e-02, -7.573282718658447266e-02, 1.976435929536819458e-01, 2.184317074716091156e-02, -2.429036796092987061e-02, -8.994153141975402832e-02, -1.007911041378974915e-01, 1.344915181398391724e-01, 1.502080410718917847e-01, -7.300401479005813599e-02, -1.708156764507293701e-01, -1.302862614393234253e-01, -5.370163172483444214e-02, -1.078355982899665833e-01, -4.815229400992393494e-02, 1.593304276466369629e-01, -1.562295258045196533e-01, -1.086239330470561981e-02, 1.963794231414794922e-01, -1.975488364696502686e-01, -8.114917576313018799e-02, 1.386201083660125732e-01, 3.895884612575173378e-03, 2.952732145786285400e-02, 1.462315469980239868e-01, 1.803580969572067261e-01, 7.772598415613174438e-02, 3.275005891919136047e-02
1.817278414964675903e-01, 1.136021316051483154e-01, -1.123085096478462219e-01, 1.703273057937622070e-01, 6.995388865470886230e-02, -2.048323005437850952e-01, -1.624992340803146362e-01, 1.193503569811582565e-02, -7.542432844638824463e-02, -3.781633824110031128e-02, -2.961575798690319061e-02, -1.817037612199783325e-01, 3.609594702720642090e-02, 1.238893270492553711e-01, -4.064656794071197510e-02, 1.467897593975067139e-01, 2.238975316286087036e-01, 6.956504285335540771e-02, 1.499432623386383057e-01, -5.473880469799041748e-02, 8.957081288099288940e-02, 1.492207199335098267e-01, 7.416065782308578491e-02, -6.791096180677413940e-02, -1.909356415271759033e-01, 3.743623942136764526e-02, 1.630187779664993286e-01, 1.453402936458587646e-01, 1.640309055801481009e-04, 1.541003286838531494e-01, -1.772523671388626099e-01, 7.181618362665176392e-02
-1.339110434055328369e-01, -7.650220301002264023e-03, -1.508834213018417358e-01, -1.393403559923171997e-01, 2.092576324939727783e-01, -3.158435225486755371e-03, 1.601876765489578247e-01, -1.849535554647445679e-01, -1.839821338653564453e-01, 9.657812863588333130e-02, -8.239313028752803802e-03, 6.410454213619232178e-02, -1.606271713972091675e-01, 1.045155674219131470e-01, -2.170464694499969482e-01, -5.068125575780868530e-02, -2.336451411247253418e-02, 1.428277790546417236e-01, -2.030101567506790161e-01, -1.190024167299270630e-01, 2.009076625108718872e-01, -9.981117397546768188e-02, 1.174224913120269775e-02, 1.619378328323364258e-01, -2.030412256717681885e-01, 2.010303884744644165e-01, -1.695140302181243896e-01, -3.669475018978118896e-02, -1.075027361512184143e-01, -1.104212179780006409e-01, 1.038642227649688721e-01, -2.146775126457214355e-01
-1.938512921333312988e-02, 5.489720776677131653e-02, 1.845710277557373047e-01, 8.517005294561386108e-02, 1.844041943550109863e-01, -2.069244086742401123e-01, -7.354599982500076294e-02, 5.194677412509918213e-02, -1.212380155920982361e-01, 1.466218084096908569e-01, 1.174218058586120605e-01, -1.787458211183547974e-01, 1.159830018877983093e-01, -1.204795390367507935e-02, 1.780852526426315308e-01, 2.017432749271392822e-01, 1.000149473547935486e-01, -1.581369526684284210e-02, 1.983239054679870605e-01, 5.855485796928405762e-03, 1.576859056949615479e-01, 9.714998304843902588e-02, 8.631582558155059814e-02, -8.626288920640945435e-02, 8.811892569065093994e-02, 1.213820874691009521e-01, 1.323359757661819458e-01, 1.355626583099365234e-01, -6.282501667737960815e-02, 1.933282762765884399e-01, -1.422594189643859863e-01, -1.039272025227546692e-01
-1.982988268136978149e-01, 1.360236108303070068e-01, 1.803828217089176178e-02, 2.059077024459838867e-01, -1.033683046698570251e-01, 5.928558111190795898e-02, -1.282009482383728027e-01, 6.373150646686553955e-02, -1.862893998622894287e-01, -1.793085969984531403e-02, 9.309773892164230347e-02, 1.258185654878616333e-01, -1.253679394721984863e-01, -1.061278134584426880e-01, -1.689600348472595215e-01, -1.207435131072998047e-01, -1.634948849678039551e-01, -4.548157099634408951e-03, -2.029828131198883057e-01, -1.763080358505249023e-01, -1.173326894640922546e-01, -1.759982295334339142e-02, 2.968925423920154572e-02, -1.096332520246505737e-01, -1.742390394210815430e-01, -1.026152297854423523e-01, 1.181728243827819824e-01, 8.265402913093566895e-02, -6.237814947962760925e-02, -6.074513867497444153e-02, -6.013576686382293701e-02, -1.789205819368362427e-01
1.067651137709617615e-01, -2.100829631090164185e-01, -6.944956630468368530e-02, -5.760120972990989685e-02, -2.620774321258068085e-04, 8.268451690673828125e-02, -1.273909769952297211e-02, -2.162568271160125732e-01, -2.663336694240570068e-02, -2.231588214635848999e-02, -1.626103185117244720e-02, 5.809766799211502075e-02, -1.737940907478332520e-01, -1.705761849880218506e-01, -1.007122695446014404e-01, 1.640514880418777466e-01, 1.406207382678985596e-01, -7.366744428873062134e-02, -1.787129789590835571e-01, 8.847907185554504395e-03, 2.980395220220088959e-02, -1.280943602323532104e-01, 3.229750692844390869e-02, 1.242321059107780457e-01, 5.927580222487449646e-02, 1.528724282979965210e-01, 7.035435643047094345e-03, -8.760429918766021729e-02, -1.409476250410079956e-01, -1.825253516435623169e-01, 1.622086167335510254e-01, -3.204936161637306213e-02
3.342306613922119141e-02, -1.496948003768920898e-01, 1.743241995573043823e-01, 1.061334162950515747e-01, 2.050343900918960571e-01, 7.348832488059997559e-02, 1.057766154408454895e-01, 1.864345520734786987e-01, -7.425491511821746826e-02, 6.032243371009826660e-02, -1.356312930583953857e-01, -1.923209130764007568e-01, 4.056790843605995178e-02, -8.931651711463928223e-02, 1.484250277280807495e-01, 1.916231662034988403e-01, -1.182356700301170349e-01, -1.990816146135330200e-01, -1.467366144061088562e-02, 8.254590630531311035e-02, 1.939266920089721680e-01, -1.231211237609386444e-02, -5.799205973744392395e-02, -1.937382966279983521e-01, 1.965838074684143066e-01, 1.559424698352813721e-01, 5.083668604493141174e-02, 3.973323106765747070e-02, 1.183127909898757935e-01, 1.570157408714294434e-01, -3.981221094727516174e-02, -1.749258041381835938e-01
-1.772437989711761475e-01, 9.686969965696334839e-02, -1.717750132083892822e-01, -1.571202576160430908e-01, 1.548925489187240601e-01, -1.420105099678039551e-01, -1.902017891407012939e-01, -1.593430042266845703e-01, 1.000397503376007080e-01, 3.014232404530048370e-02, 9.640138596296310425e-02, 3.662751242518424988e-02, -2.092452049255371094e-01, -1.338671445846557617e-01, 6.161651760339736938e-02, -7.266599684953689575e-02, 1.356727480888366699e-01, 2.490060590207576752e-02, -5.832681432366371155e-02, 1.770264208316802979e-01, -9.268372668884694576e-04, -1.029588207602500916e-01, -1.196628436446189880e-01, -3.304514288902282715e-02, 8.875617384910583496e-02, 1.953382343053817749e-01, 3.635699162259697914e-03, -1.561139374971389771e-01, -8.368496596813201904e-02, -1.188836246728897095e-01, 1.465140879154205322e-01, -3.420694917440414429e-02
-1.895285099744796753e-01, 1.096613705158233643e-01, -1.712834835052490234e-01, 1.002884358167648315e-01, 8.497364819049835205e-02, -5.748189985752105713e-02, -1.153862625360488892e-01, 6.342870742082595825e-02, -1.999937593936920166e-01, -3.338206931948661804e-02, -1.655409187078475952e-01, -1.033322289586067200e-01, 1.675203144550323486e-01, 1.949800103902816772e-01, -2.036360651254653931e-01, -1.998864859342575073e-01, 3.508538380265235901e-02, -8.613238483667373657e-02, -4.342459887266159058e-02, 9.796443581581115723e-02, 4.625315964221954346e-02, -5.773775652050971985e-02, -1.583001017570495605e-01, 1.209565475583076477e-01, -3.701871633529663086e-02, -1.456624567508697510e-01, -1.808432638645172119e-01, -3.971385955810546875e-02, -1.434269994497299194e-01, -1.435429230332374573e-02, -9.653260000050067902e-03, 1.020357850939035416e-02
7.715909928083419800e-02, 1.087805442512035370e-02, 1.140545830130577087e-01, 1.426127552986145020e-01, -8.272962644696235657e-03, -6.031927466392517090e-02, 1.240189149975776672e-01, 6.054797396063804626e-02, 9.179189801216125488e-02, 3.343340754508972168e-02, -9.088955819606781006e-02, -1.829147785902023315e-01, -1.176479235291481018e-01, -2.011499702930450439e-01, -4.148968681693077087e-02, 1.967284530401229858e-01, 1.711683869361877441e-01, 1.081352308392524719e-02, 1.934421807527542114e-01, 1.415155231952667236e-01, -6.099119316786527634e-03, 5.885580554604530334e-02, 1.486770808696746826e-01, 8.484236150979995728e-02, -5.746518261730670929e-03, 5.236501991748809814e-02, -1.204171776771545410e-01, -6.915152072906494141e-02, 6.089993193745613098e-02, 4.762858524918556213e-02, 5.450181290507316589e-02, -1.520777195692062378e-01
-1.852442622184753418e-01, 2.218794636428356171e-02, -2.154717594385147095e-01, 2.943061292171478271e-02, 9.620608761906623840e-03, -1.604605019092559814e-01, 1.180444583296775818e-01, 2.575083635747432709e-02, -1.008958965539932251e-01, -1.778404042124748230e-02, -1.682666987180709839e-01, -1.365642547607421875e-01, -1.306918561458587646e-01, 1.334814876317977905e-01, 8.614877611398696899e-02, -1.670653522014617920e-01, -1.274186372756958008e-01, -2.794485073536634445e-03, 8.081083744764328003e-02, -1.042166352272033691e-01, 1.378917843103408813e-01, -1.400397270917892456e-01, 7.173907756805419922e-02, 1.402160078287124634e-01, -6.459549069404602051e-02, 1.074906736612319946e-01, 1.038322746753692627e-01, 7.763093709945678711e-02, -1.545732747763395309e-02, -6.982843577861785889e-02, 1.745924204587936401e-01, -2.766907215118408203e-03
1.169926580041646957e-02, -1.361264884471893311e-01, -6.830740720033645630e-02, -2.129539698362350464e-01, -4.417361319065093994e-02, 3.825888037681579590e-02, -1.806852519512176514e-01, -8.430018275976181030e-02, -2.056761533021926880e-01, 1.159551590681076050e-01, -6.499806046485900879e-02, 1.376564651727676392e-01, -1.420197188854217529e-01, -9.694724529981613159e-02, 1.461004279553890228e-02, 8.701333403587341309e-02, -1.084690913558006287e-01, 1.874437481164932251e-01, 1.952156238257884979e-02, 5.782389640808105469e-02, 2.206284105777740479e-01, -2.022397220134735107e-01, -1.831681118346750736e-03, -2.573194503784179688e-01, -8.615475893020629883e-02, -1.112421005964279175e-01, -1.361265685409307480e-02, -6.105226278305053711e-02, 1.223606392741203308e-01, -6.995400041341781616e-02, -6.188954785466194153e-02, 1.669571697711944580e-01
-4.295619204640388489e-02, 7.050605118274688721e-02, -4.995223879814147949e-02, -1.132023558020591736e-01, 1.991361230611801147e-01, -1.677721291780471802e-01, -4.277472570538520813e-02, -1.459393948316574097e-01, 1.865267753601074219e-01, 1.094902306795120239e-01, 4.394548013806343079e-02, -5.176255479454994202e-03, -1.554213911294937134e-01, -1.735353022813796997e-01, 2.803610265254974365e-02, -2.153952419757843018e-01, -1.993185132741928101e-01, 5.054182186722755432e-02, -1.669822633266448975e-01, -1.471353471279144287e-01, -1.444668471813201904e-01, -1.396410465240478516e-01, 7.285515218973159790e-02, 1.493012160062789917e-01, 1.137165874242782593e-01, 1.381690204143524170e-01, 1.692497581243515015e-01, -1.846610903739929199e-01, -1.753666251897811890e-01, -7.634894549846649170e-02, 2.018057405948638916e-01, 2.118445485830307007e-01
2.441880526021122932e-03, 1.288641095161437988e-01, -7.764907926321029663e-02, -2.077360600233078003e-01, -1.146946623921394348e-01, 6.513029336929321289e-02, 9.081642329692840576e-02, 2.183393388986587524e-01, 1.104559898376464844e-01, -7.573972456157207489e-03, -1.915208399295806885e-01, -1.546115279197692871e-01, 6.195238977670669556e-02, -4.585283994674682617e-02, 9.182670712471008301e-02, -4.332400485873222351e-02, 2.112787365913391113e-01, 3.740919008851051331e-02, 1.629408895969390869e-01, 3.825843334197998047e-03, -2.086460143327713013e-01, 9.627839922904968262e-02, -5.960382893681526184e-02, 1.638749986886978149e-01, -8.250232040882110596e-02, 9.925130009651184082e-02, -3.440180420875549316e-02, -5.272726714611053467e-02, 1.845823079347610474e-01, 1.277393549680709839e-01, 7.823283784091472626e-03, 9.754799306392669678e-03
1.089872419834136963e-01, -2.092887014150619507e-01, 1.873629391193389893e-01, -9.720040112733840942e-02, -8.258137851953506470e-02, 1.561553478240966797e-01, 1.204507723450660706e-01, 2.158359736204147339e-01, 1.808755993843078613e-01, 8.294881135225296021e-02, 2.177793718874454498e-02, -1.965642422437667847e-01, -4.977434501051902771e-02, 7.798081636428833008e-02, 5.845162272453308105e-02, 3.710465878248214722e-02, -3.418689221143722534e-02, -1.565507501363754272e-01, 3.875147178769111633e-02, 3.066329658031463623e-02, -4.773788526654243469e-02, 1.644447296857833862e-01, -1.048257946968078613e-01, -6.335060298442840576e-02, -1.939652413129806519e-01, 1.721993684768676758e-01, -1.908747553825378418e-01, -1.878464072942733765e-01, -5.507526174187660217e-02, 8.488200604915618896e-02, -5.736169591546058655e-02, -3.389560803771018982e-02
1.273212581872940063e-01, -1.701036989688873291e-01, 6.541676819324493408e-02, 1.411951929330825806e-01, -1.886551380157470703e-01, -1.646494716405868530e-01, -2.129658460617065430e-01, 1.910298317670822144e-01, 6.895577907562255859e-02, 6.041627377271652222e-02, 6.931030005216598511e-02, 1.775310039520263672e-01, 1.259649097919464111e-01, 2.388094812631607056e-01, 1.598660051822662354e-01, -1.077524013817310333e-02, 7.838148623704910278e-03, 7.084012031555175781e-02, 9.876594692468643188e-02, 4.054343700408935547e-02, 1.102408841252326965e-01, 1.049956083297729492e-01, -4.603546485304832458e-02, 8.773487806320190430e-02, -4.217513650655746460e-02, 7.274093478918075562e-02, -1.339065283536911011e-02, -2.463915944099426270e-02, 1.724012196063995361e-01, 5.808176845312118530e-02, -3.458493202924728394e-02, -2.191580981016159058e-01
1.305984109640121460e-01, 9.238543361425399780e-02, -1.228609830141067505e-01, -3.952546790242195129e-02, -1.613971143960952759e-01, 9.810924530029296875e-02, -7.075357437133789062e-02, -1.085572764277458191e-01, 1.103387773036956787e-01, 1.948879510164260864e-01, 1.407094001770019531e-01, -2.012867927551269531e-01, 7.249429076910018921e-02, 1.317761391401290894e-01, -1.468146741390228271e-01, -7.355917990207672119e-02, 1.057360172271728516e-01, 1.686880737543106079e-01, -6.816677749156951904e-02, -9.828506410121917725e-02, 1.504711359739303589e-01, 2.463689818978309631e-02, -1.404318958520889282e-01, 2.039079517126083374e-01, 1.912561058998107910e-01, 5.439359694719314575e-02, -5.282880738377571106e-03, 5.347487330436706543e-02, 1.587191969156265259e-01, -9.083399176597595215e-02, 1.708573997020721436e-01, 6.253100931644439697e-02
1.611972153186798096e-01, 6.817413121461868286e-02, -9.737587720155715942e-02, 8.315626531839370728e-02, 2.376857772469520569e-02, 1.675393581390380859e-01, -7.513017207384109497e-02, -1.751880794763565063e-01, -6.716388463973999023e-02, 1.862009316682815552e-01, 1.049497798085212708e-01, -1.241017431020736694e-01, -1.844360232353210449e-01, -9.695022553205490112e-02, 1.983861923217773438e-01, -1.350548565387725830e-01, 1.420000046491622925e-01, 1.647911816835403442e-01, -9.964127838611602783e-02, -1.210550740361213684e-01, 8.625353872776031494e-02, -1.997807174921035767e-01, -4.115078132599592209e-03, 4.415090382099151611e-02, -1.633735932409763336e-02, -4.321075603365898132e-02, -1.197979301214218140e-01, 1.867707669734954834e-01, 3.300438821315765381e-02, -2.228911519050598145e-01, -3.369797021150588989e-03, 1.409242749214172363e-01
5.591659992933273315e-02, -4.499081894755363464e-02, -1.640238463878631592e-01, -5.330678820610046387e-02, -7.047341763973236084e-02, 7.952764630317687988e-03, -6.200819090008735657e-02, 9.584043920040130615e-02, -1.691307872533798218e-01, -1.848193854093551636e-01, -3.118555434048175812e-02, 3.169707953929901123e-02, 2.109404355287551880e-01, -1.545675843954086304e-01, -3.428298234939575195e-02, 3.112236782908439636e-02, -1.515482664108276367e-01, 5.650839954614639282e-02, 8.552821725606918335e-02, -4.228799045085906982e-02, 1.803701743483543396e-02, -5.132689327001571655e-02, 1.814232915639877319e-01, 3.628047555685043335e-02, -2.240825258195400238e-02, 1.874593086540699005e-02, -2.489428967237472534e-03, 2.852611243724822998e-02, 1.818895936012268066e-01, -1.362654268741607666e-01, -2.039652913808822632e-01, -1.228595972061157227e-01
-8.232641220092773438e-02, -1.889863759279251099e-01, 1.208843886852264404e-01, 1.993586421012878418e-01, 2.111204415559768677e-01, -7.823660969734191895e-02, -1.217633187770843506e-01, -1.973680686205625534e-03, 1.254265308380126953e-01, 2.030413895845413208e-01, -1.335889846086502075e-01, -7.762581855058670044e-02, -1.654220819473266602e-01, 9.517896920442581177e-02, -1.079585403203964233e-01, -1.407766491174697876e-01, 2.156952917575836182e-01, -2.594645880162715912e-02, 8.359592407941818237e-02, 1.688060760498046875e-01, -2.131349891424179077e-01, -9.152316302061080933e-02, 3.652660176157951355e-03, -1.025671884417533875e-01, -1.877739578485488892e-01, -7.547963410615921021e-02, 1.318925619125366211e-01, 1.791721582412719727e-01, 1.305866986513137817e-01, 1.693368554115295410e-01, -7.275551557540893555e-02, -6.743603851646184921e-03
-9.672722220420837402e-02, -1.615868955850601196e-01, 1.477298438549041748e-01, -8.769784122705459595e-02, -9.864401817321777344e-02, -2.371272444725036621e-02, 1.500955224037170410e-01, 1.823747158050537109e-01, -1.535096019506454468e-01, 1.116127669811248779e-01, 1.327816955745220184e-02, 6.258409470319747925e-02, 3.273551911115646362e-02, -1.529791653156280518e-01, 1.256437599658966064e-01, 2.015825510025024414e-01, -2.093201428651809692e-01, 1.161283999681472778e-01, -2.113802880048751831e-01, -7.598336040973663330e-02, 1.236725598573684692e-01, 3.077104047406464815e-04, 1.161538511514663696e-01, -1.102369055151939392e-01, 3.909830749034881592e-02, -1.939098089933395386e-01, 1.867698729038238525e-01, 1.697188913822174072e-01, 2.186856567859649658e-01, 9.006728231906890869e-02, -1.237163618206977844e-01, 1.184944659471511841e-01
-2.144547998905181885e-01, 2.708926610648632050e-02, -1.137862876057624817e-01, -9.685448557138442993e-02, 1.851182281970977783e-01, -1.175139322876930237e-01, 1.004736721515655518e-01, 1.716402024030685425e-01, 7.184201478958129883e-02, 1.704291105270385742e-01, -1.793113797903060913e-01, 1.483947038650512695e-01, -3.438047319650650024e-02, 1.200667843222618103e-01, -1.315830647945404053e-01, -1.437828391790390015e-01, -2.309042401611804962e-02, -1.492734253406524658e-01, -1.558575928211212158e-01, -1.790165603160858154e-01, 6.689975410699844360e-02, 1.450775116682052612e-01, -1.579571366310119629e-01, -1.175284162163734436e-01, -1.412484496831893921e-01, -1.066538318991661072e-01, 4.495856352150440216e-03, -2.131989896297454834e-01, 1.441938877105712891e-01, 7.150122523307800293e-02, 1.256586760282516479e-01, -6.572960317134857178e-02
-3.042284026741981506e-02, 8.722093701362609863e-02, 4.367636144161224365e-02, -3.612272441387176514e-02, -8.669162541627883911e-02, -2.048006355762481689e-01, 1.134194210171699524e-01, -3.511231020092964172e-02, 1.850080192089080811e-01, -1.384012252092361450e-01, 2.630147337913513184e-02, -1.915421783924102783e-01, -1.547649800777435303e-01, -6.341757625341415405e-02, 1.509969979524612427e-01, -1.842811703681945801e-01, 8.068694174289703369e-02, -1.146378228440880775e-03, -2.193514406681060791e-01, 2.112137973308563232e-01, -2.643600478768348694e-02, 1.708165258169174194e-01, 1.699665784835815430e-01, -1.726571023464202881e-01, -1.578535437583923340e-01, 7.268618047237396240e-02, -8.428846299648284912e-02, -1.512436568737030029e-02, 7.721746712923049927e-02, 1.258587371557950974e-02, 1.053414940834045410e-01, 3.291064500808715820e-02
-1.360829621553421021e-01, 1.998413056135177612e-01, -1.663696020841598511e-01, 7.570952922105789185e-02, -5.837675556540489197e-02, -1.003055498003959656e-01, -1.400254964828491211e-01, -2.115444988012313843e-01, -3.501802682876586914e-03, 3.246948122978210449e-02, -1.021781489253044128e-01, -4.517191275954246521e-02, -8.013211190700531006e-02, -7.439342886209487915e-02, 9.813279844820499420e-03, 1.237260475754737854e-01, -1.676100306212902069e-02, 3.576896339654922485e-02, -3.158877789974212646e-02, -1.334924101829528809e-01, 1.414154469966888428e-01, -2.540325187146663666e-02, 1.561955213546752930e-01, 7.641793042421340942e-02, -3.817898407578468323e-02, 2.740177512168884277e-02, 1.323259025812149048e-01, -6.223963201045989990e-02, -5.726972594857215881e-02, -1.083649471402168274e-01, 4.313202202320098877e-02, 1.966657787561416626e-01
-2.012688070535659790e-01, 2.633087150752544403e-02, 1.772652566432952881e-02, -1.957715451717376709e-01, 1.538309603929519653e-01, 1.931001543998718262e-01, 1.303437501192092896e-01, -8.770228177309036255e-02, -2.011148780584335327e-01, 1.994582116603851318e-01, -6.189373880624771118e-02, 1.329746097326278687e-01, -1.102763414382934570e-02, 1.351386308670043945e-01, -9.144823253154754639e-02, -1.731222420930862427e-01, -8.677746355533599854e-02, 6.977593898773193359e-02, -1.678528040647506714e-01, -1.390339434146881104e-02, 1.182185560464859009e-01, -1.113551929593086243e-01, -2.245029956102371216e-01, -1.812760084867477417e-01, 1.706663221120834351e-01, 1.540357898920774460e-02, 1.707997769117355347e-01, 2.047192454338073730e-01, 1.305487751960754395e-01, 1.251962929964065552e-01, -1.876473277807235718e-01, -1.075625047087669373e-02
1.977819204330444336e-01, -1.509928852319717407e-01, 1.883288472890853882e-02, 2.159913815557956696e-02, 1.148371845483779907e-01, -1.596866399049758911e-01, 1.002037301659584045e-01, -1.402273625135421753e-01, -1.697400212287902832e-02, 1.976748257875442505e-01, -2.001019939780235291e-02, 5.139563977718353271e-02, -2.036249786615371704e-01, 1.527937799692153931e-01, 1.257049590349197388e-01, -8.832703530788421631e-02, 9.592211991548538208e-02, 1.526346206665039062e-01, -1.191692054271697998e-01, 1.819279491901397705e-01, 1.704359352588653564e-01, 6.646363437175750732e-02, -4.860168695449829102e-02, -1.229314729571342468e-01, 3.425501985475420952e-03, 1.469137072563171387e-01, -1.180443838238716125e-01, -9.538368135690689087e-02, 2.025048881769180298e-01, 1.104281097650527954e-02, 3.634452819824218750e-02, 1.288319975137710571e-01
-5.243210121989250183e-02, 1.160695254802703857e-01, 1.787026375532150269e-01, -1.109580621123313904e-01, 1.805573105812072754e-01, -2.107263654470443726e-01, 6.901789456605911255e-02, 1.265828460454940796e-01, 1.306329667568206787e-01, -7.144746929407119751e-02, -1.789322048425674438e-01, 2.307155281305313110e-01, 1.355526894330978394e-01, -1.091643795371055603e-02, -9.670833498239517212e-02, -7.891093939542770386e-02, 3.733798488974571228e-02, 5.183386430144309998e-02, -1.295478194952011108e-01, -1.831854134798049927e-01, 1.225297227501869202e-01, 1.978696882724761963e-01, 1.187829226255416870e-01, 2.002869248390197754e-01, 2.063066810369491577e-01, 3.144674748182296753e-02, 1.480724066495895386e-01, 5.396217107772827148e-03, 2.247043848037719727e-01, -6.547630182467401028e-04, 1.348883956670761108e-01, 6.588476151227951050e-02
4.679081961512565613e-02, 1.714634001255035400e-01, -2.059426158666610718e-01, 8.266247063875198364e-02, -1.887526363134384155e-01, -7.116164267063140869e-02, 5.798747017979621887e-02, -1.160797290503978729e-02, 2.603432536125183105e-02, 5.792875587940216064e-02, -2.384079992771148682e-02, 1.147559806704521179e-01, -1.349983662366867065e-01, 6.689469516277313232e-02, 1.516924500465393066e-01, 2.107229381799697876e-01, -8.304991573095321655e-02, -1.735900789499282837e-01, 9.315109252929687500e-02, -1.537063270807266235e-01, 4.401944950222969055e-02, 4.521642997860908508e-02, -1.055377274751663208e-01, -1.319367252290248871e-02, -7.492225617170333862e-02, 9.994763880968093872e-02, -4.314613714814186096e-02, 2.490155398845672607e-02, 2.162823528051376343e-01, -1.843780130147933960e-01, -1.475416272878646851e-01, 1.389855891466140747e-01
1.679412573575973511e-01, 1.464833617210388184e-01, -1.663292944431304932e-01, -1.949687302112579346e-01, 5.461503565311431885e-02, -7.295012474060058594e-03, 7.717309147119522095e-02, -1.437641680240631104e-01, 3.568677604198455811e-02, -1.465892419219017029e-04, -1.045473441481590271e-01, 9.076217561960220337e-02, -1.826985776424407959e-01, 1.045128479599952698e-01, 4.248397052288055420e-02, 8.171456307172775269e-02, 6.924717873334884644e-02, -5.271381512284278870e-02, -1.447616368532180786e-01, -1.855857074260711670e-01, -1.719029694795608521e-01, 8.849409967660903931e-02, 1.893798857927322388e-01, -1.055748537182807922e-01, -2.681863307952880859e-02, 1.239295676350593567e-01, -9.489652514457702637e-02, -9.163677692413330078e-02, -1.151962503790855408e-01, -1.986504793167114258e-01, 1.924159377813339233e-01, 1.057497039437294006e-01
-1.392376273870468140e-01, 1.388317644596099854e-01, -4.306530579924583435e-02, 1.843170821666717529e-01, 1.123954132199287415e-01, -1.176753193140029907e-01, 1.018397659063339233e-01, 1.362093985080718994e-01, 2.429483830928802490e-02, 4.174283146858215332e-02, 1.792999655008316040e-01, -7.480627298355102539e-02, -1.046180799603462219e-01, -9.200830757617950439e-02, 2.162988334894180298e-01, -1.425072401762008667e-01, 1.451990846544504166e-02, -1.989025175571441650e-01, 1.492592543363571167e-01, 1.764436066150665283e-02, 1.689763069152832031e-01, -9.917612373828887939e-02, -2.068544477224349976e-01, 2.109900712966918945e-01, 1.691882610321044922e-01, 9.471071511507034302e-02, 9.642229974269866943e-02, -1.785613149404525757e-01, -1.023389101028442383e-01, -4.403571784496307373e-02, -1.912560164928436279e-01, -9.821772575378417969e-02
-1.597454249858856201e-01, -5.264225229620933533e-02, 6.399514526128768921e-02, -2.105777412652969360e-01, -1.726012825965881348e-01, 1.601993143558502197e-01, 3.575465083122253418e-02, 8.221777528524398804e-02, 1.248564720153808594e-01, -1.017914786934852600e-01, -2.638869453221559525e-03, 2.161849737167358398e-01, 1.913241893053054810e-01, 1.091348603367805481e-01, 1.465729475021362305e-01, -1.671277135610580444e-01, -5.650258157402276993e-03, -1.374453604221343994e-01, 1.623467803001403809e-01, -1.107759252190589905e-01, -6.770823895931243896e-02, -1.345041096210479736e-01, 6.117869913578033447e-02, 1.551566123962402344e-01, -1.536945067346096039e-02, -3.355219587683677673e-02, 5.655336007475852966e-02, -1.786396503448486328e-01, -3.410094976425170898e-02, 1.053366959095001221e-01, -1.033525615930557251e-01, 1.033722423017024994e-02
-9.682391583919525146e-02, 1.042631566524505615e-01, 1.136142760515213013e-01, 1.540424078702926636e-01, 4.753300175070762634e-02, -2.059204429388046265e-01, -7.584265619516372681e-02, -1.540208756923675537e-01, -2.074663639068603516e-01, 7.522950321435928345e-02, -1.271596252918243408e-01, -1.660129129886627197e-01, 6.914991140365600586e-02, 1.244717687368392944e-01, 7.248438894748687744e-02, 1.514083296060562134e-01, -1.782455742359161377e-01, 1.361403912305831909e-01, 1.719351708889007568e-01, 4.750210046768188477e-02, -1.919476687908172607e-01, -5.123104155063629150e-02, 9.643209725618362427e-02, -1.606540679931640625e-01, 6.643738597631454468e-02, -1.021545901894569397e-01, 5.231040716171264648e-02, 6.514593958854675293e-02, 3.839465323835611343e-03, 1.439853012561798096e-01, -3.435885161161422729e-02, -1.064640283584594727e-01
-1.578084677457809448e-01, -1.092950552701950073e-01, -1.467382013797760010e-01, 8.641241118311882019e-03, 2.052828073501586914e-01, -1.068113073706626892e-01, -1.225826442241668701e-01, 8.518267422914505005e-02, -5.864703655242919922e-02, -7.221908867359161377e-02, -5.812872201204299927e-03, -3.509683161973953247e-02, 1.764586865901947021e-01, -1.033340115100145340e-02, 1.457747817039489746e-01, 2.060274966061115265e-02, 1.598498672246932983e-01, -9.106688201427459717e-02, -2.322649955749511719e-02, -1.846217960119247437e-01, -1.997262537479400635e-01, 2.006767094135284424e-01, -6.774380803108215332e-02, 6.928909569978713989e-02, 1.854216158390045166e-01, 9.746599011123180389e-03, -2.341573834419250488e-01, 1.720307469367980957e-01, -6.725650280714035034e-02, 8.449517935514450073e-02, -2.064426690340042114e-01, 1.815197020769119263e-01
1.383105069398880005e-01, -1.027790550142526627e-02, -1.009311601519584656e-01, 3.983714431524276733e-02, -1.347160246223211288e-02, 9.035101532936096191e-02, -1.972321793437004089e-02, 1.896510720252990723e-01, 6.614142656326293945e-02, 4.792284220457077026e-03, -1.080079823732376099e-01, 2.154459357261657715e-01, 1.724732667207717896e-01, -1.962905228137969971e-01, -1.179640460759401321e-02, -7.699397951364517212e-02, 1.870712079107761383e-02, 2.158366292715072632e-01, 1.966014504432678223e-01, -1.823940277099609375e-01, 1.790554672479629517e-01, 1.059495136141777039e-01, 6.348467618227005005e-02, 8.222670108079910278e-02, -1.439905464649200439e-01, -1.452426612377166748e-01, -7.770045101642608643e-02, -1.217423602938652039e-01, -3.553344681859016418e-02, -6.910608708858489990e-02, -1.758483797311782837e-01, -9.523108601570129395e-02
-1.550396680831909180e-01, 1.325958818197250366e-01, 6.998202204704284668e-02, 1.522105000913143158e-02, 8.792585879564285278e-02, -1.529490351676940918e-01, -1.859584897756576538e-01, -1.904494874179363251e-02, -5.628105998039245605e-02, 1.050238832831382751e-01, 1.908221691846847534e-01, 2.100317776203155518e-01, 1.821852754801511765e-03, 7.106351107358932495e-02, -1.768711507320404053e-01, 8.469893783330917358e-02, 7.189569622278213501e-02, 1.252254545688629150e-01, 1.971177756786346436e-02, 2.084924876689910889e-01, 9.052457660436630249e-02, 1.686608046293258667e-01, 8.389876782894134521e-02, -2.405710751190781593e-03, -1.464947015047073364e-01, 6.762320548295974731e-02, -1.802456825971603394e-01, -1.491631567478179932e-02, 1.317249089479446411e-01, -1.084289327263832092e-01, -1.217481940984725952e-01, -1.714850962162017822e-01
7.879143208265304565e-02, 1.116906851530075073e-01, -4.333151131868362427e-02, -9.018977731466293335e-02, 1.734969466924667358e-01, 1.771517097949981689e-02, 5.906546860933303833e-02, 9.740710258483886719e-03, 1.475969552993774414e-01, 2.073552226647734642e-03, 1.508703380823135376e-01, 2.002044618129730225e-01, -8.126559853553771973e-02, -1.168744266033172607e-01, 1.574750691652297974e-01, 2.232325822114944458e-02, -1.769317984580993652e-01, -2.001907229423522949e-01, -2.051316499710083008e-01, 1.836476325988769531e-01, -2.079888880252838135e-01, -1.457463949918746948e-01, 1.382737159729003906e-01, -1.893515735864639282e-01, -4.283767938613891602e-02, 3.842117264866828918e-02, -1.417933851480484009e-01, 7.079386711120605469e-02, -1.191971227526664734e-01, -2.799965254962444305e-02, -2.151404619216918945e-01, -9.517612308263778687e-02
1.759688556194305420e-01, 1.490188688039779663e-01, 1.935087442398071289e-01, 1.380744278430938721e-01, 5.520132556557655334e-02, 1.293527185916900635e-01, -5.015982780605554581e-03, -1.321666091680526733e-01, -2.089061141014099121e-01, -1.217863243073225021e-02, 4.028427414596080780e-03, 5.758334323763847351e-02, -3.766479715704917908e-02, -8.928655833005905151e-02, -2.047656476497650146e-01, 2.022643536329269409e-01, 1.883900612592697144e-01, -9.166154265403747559e-02, 1.546946316957473755e-01, 1.397881209850311279e-01, 7.422237098217010498e-02, -1.403710544109344482e-01, -1.949456147849559784e-02, 2.048747688531875610e-01, 6.043048948049545288e-02, -2.676534652709960938e-02, -1.919767707586288452e-01, 3.807115554809570312e-02, 2.549658529460430145e-02, -7.290083914995193481e-02, 8.565363474190235138e-03, -1.044078990817070007e-01
4.066750407218933105e-02, 1.210987120866775513e-01, 7.764273881912231445e-02, -6.756509095430374146e-02, -1.274968534708023071e-01, 5.909770727157592773e-02, 1.260446608066558838e-01, 1.592472754418849945e-02, -9.976201504468917847e-02, -8.262429386377334595e-03, -1.754691302776336670e-01, -1.849380582571029663e-01, -2.079421728849411011e-01, -8.376845717430114746e-02, -9.140916913747787476e-02, -7.903189212083816528e-02, -1.836625188589096069e-01, -6.254325062036514282e-02, 1.681008785963058472e-01, -1.689999550580978394e-01, 4.441325366497039795e-02, -1.374153792858123779e-01, -7.703231275081634521e-02, -1.462470740079879761e-01, 3.435321152210235596e-02, -1.322974562644958496e-01, 1.041440814733505249e-01, -1.312555968761444092e-01, -1.205899491906166077e-01, -1.867478638887405396e-01, 1.119820475578308105e-01, -1.072150748223066330e-02
1.720981001853942871e-01, -9.257121384143829346e-02, 9.608019888401031494e-02, -7.650835812091827393e-02, 3.097255481407046318e-03, 2.905343472957611084e-02, 5.960814654827117920e-02, -9.755438566207885742e-02, 7.968294620513916016e-02, -1.421460509300231934e-01, 1.241817474365234375e-01, 1.265867333859205246e-02, -1.045701578259468079e-01, -1.770679503679275513e-01, -8.925615251064300537e-02, -1.530150622129440308e-01, 1.714090257883071899e-01, 1.213018745183944702e-01, 5.647491663694381714e-02, 9.258770942687988281e-02, 3.627097979187965393e-02, -5.674708262085914612e-02, 1.268817186355590820e-01, -2.000050060451030731e-02, -6.886848062276840210e-02, -1.839464008808135986e-01, -1.797847449779510498e-01, 1.177721023559570312e-01, 1.682378649711608887e-01, -1.938021928071975708e-01, 1.181032732129096985e-01, 1.691835373640060425e-01
-1.132862120866775513e-01, -1.930852979421615601e-01, -1.019782498478889465e-01, -1.508602201938629150e-01, 3.222857788205146790e-02, 7.376596331596374512e-03, -1.712207682430744171e-02, 1.710644364356994629e-02, -1.060639917850494385e-01, -1.524637192487716675e-01, -9.605928510427474976e-02, 1.913040429353713989e-01, 1.626384407281875610e-01, 2.913940139114856720e-02, 7.504084706306457520e-02, 1.160410419106483459e-01, 1.023902669548988342e-01, -3.334052860736846924e-02, 2.690898440778255463e-02, -1.031040474772453308e-01, 7.826130837202072144e-02, 1.055945176631212234e-02, 7.510086894035339355e-02, 1.888663768768310547e-01, -7.239635288715362549e-02, 9.370177052915096283e-03, 1.442984938621520996e-01, -6.404221057891845703e-04, -6.064504757523536682e-02, -2.563249878585338593e-02, 1.718701124191284180e-01, 1.781428456306457520e-01
-8.609297126531600952e-02, 1.233577951788902283e-01, -1.178859844803810120e-01, 1.963046006858348846e-02, -3.179789707064628601e-02, -1.919932663440704346e-02, -1.358538400381803513e-02, 9.083698689937591553e-02, 8.666515350341796875e-02, -1.981066763401031494e-01, 1.728966385126113892e-01, 2.302427738904953003e-01, 1.443831622600555420e-01, 1.828803680837154388e-02, -1.048642918467521667e-01, -8.075007051229476929e-02, -1.013091355562210083e-01, -8.063471317291259766e-02, -1.522761434316635132e-01, -9.702897816896438599e-02, 7.672392576932907104e-02, 4.140753671526908875e-02, -1.099408119916915894e-01, -1.014949381351470947e-01, 1.919742822647094727e-01, -1.410645525902509689e-02, 1.378073096275329590e-01, -1.586882770061492920e-02, 1.927816867828369141e-01, -3.992321342229843140e-02, 7.887931913137435913e-02, 1.284089982509613037e-01
1.605987548828125000e-01, -1.973913311958312988e-01, -1.413267105817794800e-02, 1.659971177577972412e-01, -5.623705312609672546e-02, 1.698028743267059326e-01, 1.568952649831771851e-01, -1.655512601137161255e-01, 3.257931768894195557e-02, 1.820596009492874146e-01, 1.348605155944824219e-01, -1.817927658557891846e-01, -5.960886552929878235e-02, 7.615590095520019531e-02, 7.504142075777053833e-02, 1.184086129069328308e-01, -5.248457193374633789e-02, -1.356552243232727051e-01, -1.212665140628814697e-01, -8.222256600856781006e-02, -1.755874752998352051e-01, 6.372205913066864014e-02, 7.516920566558837891e-02, 2.063030563294887543e-02, -1.372145414352416992e-01, -1.484083235263824463e-01, -8.054152876138687134e-02, -5.803595483303070068e-02, -1.103792898356914520e-02, -2.089005857706069946e-01, 1.702781021595001221e-01, -4.100282862782478333e-02
-1.797782480716705322e-01, -3.295881301164627075e-02, 1.031815633177757263e-01, 1.903368979692459106e-01, -1.296522468328475952e-01, -7.432495057582855225e-02, -1.179085448384284973e-01, 4.674978181719779968e-02, -1.856943815946578979e-01, -1.393516957759857178e-01, 3.755015879869461060e-02, -4.434340447187423706e-02, 1.757947355508804321e-01, 5.871979147195816040e-02, 1.935073137283325195e-01, 1.906390339136123657e-01, -1.176902949810028076e-01, 1.160378009080886841e-02, -3.051027096807956696e-02, 8.092403411865234375e-02, -1.031596064567565918e-01, 1.042962521314620972e-01, -1.692542731761932373e-01, 2.133979946374893188e-01, -7.088190317153930664e-02, 2.084384299814701080e-02, -1.657946966588497162e-02, 1.389171779155731201e-01, 2.033927440643310547e-01, -6.570865958929061890e-02, -4.471782967448234558e-02, -2.060328423976898193e-01
-3.362304717302322388e-02, -1.652638167142868042e-01, -3.803880140185356140e-02, -6.289431825280189514e-03, -5.066336691379547119e-02, -2.051398307085037231e-01, -1.987417787313461304e-02, -1.728731691837310791e-01, -1.670935302972793579e-01, 1.741108596324920654e-01, -1.351732313632965088e-01, -1.229027360677719116e-01, -1.323454529047012329e-01, -2.691262774169445038e-02, -6.400959193706512451e-02, 1.279058903455734253e-01, -1.092503815889358521e-01, -1.593665778636932373e-01, -1.168514043092727661e-01, -8.285023272037506104e-02, 9.002387523651123047e-02, 1.855923533439636230e-01, 1.262573301792144775e-01, 1.853974014520645142e-01, 1.258643567562103271e-01, -1.679761894047260284e-02, 1.770433038473129272e-01, 8.390656113624572754e-02, -1.204813867807388306e-01, 1.390020996332168579e-01, 1.295588165521621704e-01, -1.273653656244277954e-01
-5.803392827510833740e-02, 5.001782625913619995e-02, 3.668340295553207397e-02, 4.384734854102134705e-02, 9.311310201883316040e-02, -4.178760945796966553e-02, 4.797812551259994507e-02, 3.514869511127471924e-02, -5.651223659515380859e-02, -9.313626587390899658e-02, -6.098536774516105652e-02, 2.288213521242141724e-01, -1.149047017097473145e-01, -1.260838359594345093e-01, -8.124635368585586548e-02, -1.707738190889358521e-01, 1.115959733724594116e-01, -4.315792024135589600e-02, 1.970473863184452057e-02, 2.175964415073394775e-02, 1.144185941666364670e-02, 5.335091799497604370e-02, 8.291910588741302490e-02, 1.122737973928451538e-01, -1.075652465224266052e-01, 4.913755506277084351e-02, 8.734349161386489868e-02, -1.033263877034187317e-01, 1.008713990449905396e-01, 1.866270005702972412e-01, -3.331235609948635101e-03, 1.182654649019241333e-01
-1.871644109487533569e-01, -2.014441788196563721e-01, -2.171368896961212158e-02, 1.724980957806110382e-02, -2.158721387386322021e-01, 1.240649223327636719e-01, 1.392943598330020905e-02, -1.240033954381942749e-01, -1.802037209272384644e-01, -1.036219522356987000e-01, 1.206472590565681458e-01, 5.996603891253471375e-02, 3.152477322146296501e-03, 1.978279948234558105e-01, 6.300175189971923828e-02, 6.040012836456298828e-02, -1.876518577337265015e-01, -1.311008930206298828e-01, -5.329972878098487854e-02, -2.084528505802154541e-01, -2.680701762437820435e-02, 1.448062956333160400e-01, -1.662231981754302979e-01, 7.402901072055101395e-03, 4.641212895512580872e-02, 3.396027907729148865e-02, 1.200138330459594727e-01, -7.569596171379089355e-03, 1.530916988849639893e-01, -1.615221351385116577e-01, 5.019792821258306503e-03, -2.997823618352413177e-02
-9.519152343273162842e-02, -2.212474048137664795e-01, 1.824339032173156738e-01, -1.316106319427490234e-01, 1.639571338891983032e-01, -5.649745464324951172e-02, 1.397042721509933472e-01, -1.807195395231246948e-01, 8.912917971611022949e-02, -1.280176788568496704e-01, -1.033909916877746582e-01, 1.037027612328529358e-01, -1.948447376489639282e-01, 1.223397925496101379e-01, 1.410070508718490601e-01, 2.049324661493301392e-01, -1.609882414340972900e-01, -8.560809493064880371e-02, -1.290445029735565186e-01, -7.435427606105804443e-02, 2.233626728411763906e-04, -1.924855411052703857e-01, 1.519844979047775269e-01, 1.354104727506637573e-01, -1.070301681756973267e-01, 9.634665399789810181e-02, -6.605360656976699829e-02, 1.715086102485656738e-01, 2.034155279397964478e-01, -3.376577422022819519e-02, 1.509148180484771729e-01, 8.870334923267364502e-02
-1.389760375022888184e-01, -1.048728451132774353e-01, -3.259295970201492310e-02, -7.396900653839111328e-02, 9.908935427665710449e-02, -1.003713235259056091e-01, 1.974987983703613281e-01, -1.793801188468933105e-01, -5.880182981491088867e-02, -8.186556398868560791e-02, -8.990469574928283691e-02, 9.311448037624359131e-02, 1.510346978902816772e-01, 1.613184064626693726e-01, -3.905278444290161133e-02, 7.597612589597702026e-02, 1.250337064266204834e-01, 1.747823655605316162e-01, 1.348113566637039185e-01, 6.225582957267761230e-02, 3.096656687557697296e-02, -1.760634630918502808e-01, -1.713716387748718262e-01, 1.735668182373046875e-01, -4.497930407524108887e-02, -1.177178844809532166e-01, -1.551440358161926270e-01, -1.754303872585296631e-01, 2.673111855983734131e-02, 2.875410020351409912e-02, -2.135545164346694946e-01, 1.002971827983856201e-01
1.924514174461364746e-01, 1.053021550178527832e-01, 1.386775523424148560e-01, 9.838548302650451660e-02, 8.777760714292526245e-02, -1.102857068181037903e-01, 1.539205759763717651e-01, 1.135527342557907104e-01, -1.164851635694503784e-01, -1.641829758882522583e-01, -6.299199908971786499e-02, -1.206976026296615601e-01, 3.224083781242370605e-02, 1.618453860282897949e-01, -3.226052736863493919e-03, -1.780310422182083130e-01, 8.846701681613922119e-02, 2.049590796232223511e-01, 1.672972738742828369e-02, -7.120230793952941895e-02, 3.115366026759147644e-02, 1.480753719806671143e-01, 8.300812542438507080e-02, 9.985713660717010498e-02, -2.101839482784271240e-01, -1.345958113670349121e-01, -3.048616088926792145e-02, -1.445610523223876953e-01, 2.202710360288619995e-01, 2.670339774340391159e-03, -1.842093765735626221e-01, 1.083032563328742981e-01
-1.487435698509216309e-01, -2.301919758319854736e-01, 7.433024048805236816e-02, 1.054332852363586426e-01, -7.877545058727264404e-02, -1.442982107400894165e-01, 6.818173825740814209e-02, -8.301586657762527466e-02, -1.198847889900207520e-01, -1.880484819412231445e-01, -9.068264625966548920e-04, -2.684810012578964233e-02, -3.771602176129817963e-03, -7.189459353685379028e-02, -1.720346212387084961e-01, 8.290048688650131226e-02, -1.664340794086456299e-01, -1.482417285442352295e-01, 1.893671452999114990e-01, 3.228069841861724854e-02, -6.584482640027999878e-02, 1.825657933950424194e-01, -1.094311326742172241e-01, 2.117688804864883423e-01, 1.581441313028335571e-01, -1.489695161581039429e-01, 6.551576405763626099e-02, -1.056267395615577698e-01, 1.005858704447746277e-01, 1.683973222970962524e-01, 1.127877011895179749e-01, -5.739872157573699951e-02
-8.415607362985610962e-02, 1.538370698690414429e-01, -9.813843667507171631e-02, -6.161874532699584961e-02, 1.746004223823547363e-01, -1.119719296693801880e-01, 1.404439508914947510e-01, -1.064431071281433105e-01, -1.638365387916564941e-01, 1.758993864059448242e-01, 1.565073132514953613e-01, -9.443681687116622925e-02, 1.002899631857872009e-01, -1.013409420847892761e-01, -4.473864659667015076e-02, 7.567667216062545776e-02, -8.737707138061523438e-02, 1.799191832542419434e-01, -3.994489088654518127e-02, -1.623127758502960205e-01, -7.879009842872619629e-02, -3.339428082108497620e-02, -1.085695102810859680e-01, 1.180522069334983826e-01, -1.075719296932220459e-01, -2.272198721766471863e-02, -1.040686368942260742e-01, -2.500575780868530273e-02, 1.055876389145851135e-01, -1.183242574334144592e-01, -4.777086526155471802e-02, -1.549086570739746094e-01
-2.019475549459457397e-01, -1.188232526183128357e-01, -5.598663911223411560e-02, -7.888951152563095093e-02, -1.260923147201538086e-01, -1.535067558288574219e-01, -1.169086918234825134e-01, 9.328327327966690063e-02, 1.080900132656097412e-01, 1.015482619404792786e-01, -3.371156007051467896e-02, 1.635589450597763062e-01, 3.855198621749877930e-02, 4.375673085451126099e-02, 1.570297181606292725e-01, 3.138643223792314529e-03, 1.280893385410308838e-01, -1.990750879049301147e-01, -1.481172721832990646e-02, 8.153486251831054688e-02, 4.165320470929145813e-02, 3.695998713374137878e-02, 2.189946621656417847e-01, -2.144116722047328949e-02, -5.265891924500465393e-02, -5.856932327151298523e-02, -8.886735886335372925e-02, 1.170364320278167725e-01, 3.625839576125144958e-02, 1.096102595329284668e-01, -1.085015013813972473e-01, 2.232297658920288086e-01
-6.356734782457351685e-02, 6.950202584266662598e-02, -1.921642869710922241e-01, -1.739228814840316772e-01, -1.078353375196456909e-01, 1.410381197929382324e-01, -9.340801090002059937e-02, -5.870317667722702026e-02, -1.829029470682144165e-01, 1.778770685195922852e-01, 6.829475611448287964e-02, 1.057128533720970154e-01, 5.478655174374580383e-02, 6.683725863695144653e-02, -7.510826736688613892e-02, 1.062064915895462036e-01, 6.151308491826057434e-02, -1.454632282257080078e-01, -1.257086545228958130e-01, 5.242416262626647949e-02, 1.053866073489189148e-01, 1.936586499214172363e-01, 1.371008306741714478e-01, -1.495903283357620239e-01, -1.343290805816650391e-01, 1.286326348781585693e-01, -3.237193077802658081e-02, 1.371642351150512695e-01, -7.864780724048614502e-02, -3.858070448040962219e-02, -1.822761148214340210e-01, 3.517780569382011890e-04
6.781600415706634521e-02, 3.292073309421539307e-02, -1.786104887723922729e-01, -2.051737606525421143e-01, 1.475489884614944458e-01, 2.112499773502349854e-01, -8.866050839424133301e-02, -5.234961584210395813e-02, -2.076782286167144775e-01, -1.597720533609390259e-01, 1.742009371519088745e-01, 3.434884920716285706e-02, -1.631409823894500732e-01, -1.972967535257339478e-01, 2.118466049432754517e-01, -1.575884521007537842e-01, -6.839202344417572021e-02, -1.987745054066181183e-02, 6.299197673797607422e-02, 1.287004053592681885e-01, -8.968209475278854370e-02, 1.682942267507314682e-03, 1.916731894016265869e-01, 9.231741726398468018e-02, -1.680566370487213135e-01, -1.606409549713134766e-01, -9.288839995861053467e-02, -8.894243091344833374e-02, 1.927770972251892090e-01, 1.447644680738449097e-01, 1.214738115668296814e-01, -1.089569851756095886e-01
3.260287269949913025e-02, 2.080760151147842407e-01, 4.819964244961738586e-02, -1.667732894420623779e-01, 1.361888200044631958e-01, -2.673044800758361816e-03, 7.430247217416763306e-02, -1.263357698917388916e-01, -1.990309357643127441e-02, -1.971939653158187866e-01, -1.381035298109054565e-01, 9.375608712434768677e-02, 7.733672112226486206e-02, -1.852866113185882568e-01, 1.818043440580368042e-01, -1.606065630912780762e-01, 5.169476568698883057e-02, 6.415800005197525024e-02, -6.357652693986892700e-02, 1.280624270439147949e-01, -9.162949025630950928e-02, 1.619860231876373291e-01, 1.413554251194000244e-01, 1.375132352113723755e-01, -4.197252169251441956e-02, 7.164710015058517456e-02, 1.278845220804214478e-01, 4.727771878242492676e-02, 5.104225594550371170e-03, -1.166407316923141479e-01, -1.031143218278884888e-01, -5.029779672622680664e-02
-5.820694565773010254e-02, 7.071088254451751709e-02, -2.654050849378108978e-02, 1.638186536729335785e-02, 1.642952859401702881e-01, -1.854505985975265503e-01, 1.065564155578613281e-01, -3.589532896876335144e-02, 6.329888105392456055e-02, 9.860605001449584961e-02, 2.356470003724098206e-02, -1.974348425865173340e-01, -1.336388140916824341e-01, 1.517361998558044434e-01, -6.155004724860191345e-02, -9.018673002719879150e-02, 4.302336648106575012e-02, 1.905492693185806274e-01, -1.220585256814956665e-01, 4.217654466629028320e-03, -1.679988801479339600e-01, -1.958175301551818848e-01, -3.477352112531661987e-02, -6.708089262247085571e-02, 1.916886568069458008e-01, 1.023414731025695801e-01, 1.006092503666877747e-02, -1.062239557504653931e-01, 1.013295426964759827e-01, 1.434040367603302002e-01, 1.112204138189554214e-02, -1.898396760225296021e-02
-1.895818412303924561e-01, -1.181204915046691895e-01, 5.812966823577880859e-02, -2.898506261408329010e-02, -6.895937770605087280e-02, 1.820734739303588867e-01, -1.475581377744674683e-01, -2.377874031662940979e-02, 1.223020255565643311e-02, -9.424881637096405029e-02, -2.241743728518486023e-02, 5.220863223075866699e-02, -1.178135722875595093e-01, -1.720875501632690430e-01, -4.901909828186035156e-02, -1.975765265524387360e-02, 1.362666189670562744e-01, -1.636464744806289673e-01, -5.382739007472991943e-02, 1.802593171596527100e-01, -1.646866947412490845e-01, 1.799797825515270233e-02, 2.328204214572906494e-01, 8.416280150413513184e-02, -1.881218254566192627e-01, -1.336222738027572632e-01, -1.450042724609375000e-01, 1.160404384136199951e-01, -1.123658660799264908e-02, 1.277458965778350830e-01, 1.652424968779087067e-02, 1.505198031663894653e-01
3.427346050739288330e-02, 9.317184239625930786e-02, 1.751194745302200317e-01, 1.899541169404983521e-01, 1.172661259770393372e-01, -1.541078388690948486e-01, -1.812252402305603027e-01, -1.642198264598846436e-01, -6.044133007526397705e-02, 1.572917252779006958e-01, -9.310081601142883301e-02, -1.039212718605995178e-01, -1.797698736190795898e-01, 2.358279563486576080e-02, -7.630187273025512695e-02, 1.931197196245193481e-01, 2.926910482347011566e-02, -2.085290253162384033e-01, -2.034323215484619141e-01, -1.986657977104187012e-01, -8.297024667263031006e-02, -1.261671483516693115e-01, 1.345057636499404907e-01, 6.808148324489593506e-02, 7.962296903133392334e-02, -1.926332525908946991e-02, -1.769340336322784424e-01, -1.772269457578659058e-01, -7.189278304576873779e-02, 5.252758786082267761e-02, -1.319968700408935547e-01, -6.776574254035949707e-02
2.316098287701606750e-02, 1.691127866506576538e-01, -1.426980495452880859e-01, 1.408422440290451050e-01, -1.219754107296466827e-02, -8.964897692203521729e-02, 7.624965906143188477e-02, -1.657312959432601929e-01, 1.001166999340057373e-01, -1.396234929561614990e-01, 1.825720518827438354e-01, 1.954993754625320435e-01, -1.555206719785928726e-02, -1.647682636976242065e-01, -1.181612908840179443e-02, -1.953835636377334595e-01, -1.018496453762054443e-01, 9.579619765281677246e-02, 3.980412706732749939e-02, 1.026378870010375977e-01, -1.140705049037933350e-01, -1.131438985466957092e-01, 5.540528893470764160e-02, -4.047520458698272705e-02, 1.157345250248908997e-01, -1.451108977198600769e-02, 1.787974983453750610e-01, 5.731451511383056641e-02, 2.216759175062179565e-01, 8.307095617055892944e-02, 3.797319531440734863e-02, 4.503442719578742981e-02
-2.144482582807540894e-01, 1.740992665290832520e-01, -9.321352839469909668e-02, 1.603112928569316864e-02, 6.485218554735183716e-02, -1.285470128059387207e-01, 1.590023189783096313e-01, -1.745069772005081177e-01, 3.874015808105468750e-02, 7.049982249736785889e-02, -3.188958019018173218e-02, 1.576935313642024994e-02, 5.813553929328918457e-02, 6.732816249132156372e-02, 1.839669793844223022e-01, 7.394679822027683258e-03, -1.376547366380691528e-01, 1.685551255941390991e-01, 9.809579700231552124e-02, -3.194454312324523926e-02, -8.797918260097503662e-02, 5.562479048967361450e-02, 1.787027418613433838e-01, -1.679793000221252441e-01, -9.982510656118392944e-02, -1.141328439116477966e-01, -6.884373724460601807e-02, -2.070609480142593384e-01, 9.563658386468887329e-02, -5.692036077380180359e-02, -1.441744808107614517e-02, -2.011428773403167725e-02
-1.690134592354297638e-02, -8.782484382390975952e-02, -1.056006178259849548e-02, 1.165237277746200562e-01, 1.428903192281723022e-01, -1.079106330871582031e-02, 1.583993583917617798e-01, -2.417190968990325928e-01, -1.340667009353637695e-01, 1.994519829750061035e-01, 6.243093684315681458e-02, 1.137157604098320007e-01, 1.380935460329055786e-01, -1.873656362295150757e-01, -2.202088385820388794e-02, -1.864705234766006470e-01, -4.550709202885627747e-02, -4.866783693432807922e-02, -1.111080050468444824e-01, -4.490482807159423828e-02, 1.971651017665863037e-01, 1.941285431385040283e-01, 1.058441996574401855e-01, -1.353209763765335083e-01, 1.373722497373819351e-02, -2.130705416202545166e-01, 2.226528972387313843e-01, 9.030780196189880371e-02, -3.339548781514167786e-02, -3.514638170599937439e-02, 1.183095723390579224e-01, -1.815328001976013184e-01
2.061890624463558197e-02, 8.115965873003005981e-03, -1.289245486259460449e-02, 1.883302330970764160e-01, 1.516476273536682129e-01, 2.378001809120178223e-02, 1.107468307018280029e-01, -1.888557970523834229e-01, -1.440263688564300537e-01, -1.418060958385467529e-01, -2.076770663261413574e-01, -1.850980967283248901e-01, 2.070668786764144897e-01, -1.042453199625015259e-01, 1.721593290567398071e-01, 4.002233967185020447e-02, 4.310871660709381104e-02, 6.605879962444305420e-02, -6.581699103116989136e-02, 7.063147425651550293e-02, 1.974528431892395020e-01, -3.760322555899620056e-02, 1.335301548242568970e-01, 1.814410984516143799e-01, -4.085303843021392822e-02, -1.053636893630027771e-01, -1.093770712614059448e-01, -1.969504505395889282e-01, 1.734610795974731445e-01, 1.686871051788330078e-01, 1.375237852334976196e-01, -9.003866463899612427e-02
-1.792517602443695068e-01, 1.348782032728195190e-01, -8.132351934909820557e-02, 2.135662361979484558e-02, -2.160198055207729340e-02, -1.822190582752227783e-01, -1.395554691553115845e-01, 1.415231376886367798e-01, -2.291736006736755371e-02, -5.795877799391746521e-02, 3.069351613521575928e-02, 1.403316706418991089e-01, 1.888254284858703613e-01, -8.276664465665817261e-02, 1.939736306667327881e-02, -1.208660006523132324e-01, -1.798456460237503052e-01, 1.519942432641983032e-01, -2.061445116996765137e-01, -1.963575631380081177e-01, -8.581602573394775391e-02, 1.610242575407028198e-01, 7.813505828380584717e-02, 1.457487493753433228e-01, 1.815298050642013550e-01, -1.089035719633102417e-01, 1.950888484716415405e-01, 2.448171377182006836e-03, -1.255746185779571533e-01, 5.325203016400337219e-02, -2.071199864149093628e-01, -6.264842301607131958e-02
-7.784087210893630981e-02, -2.430500928312540054e-03, 1.222360953688621521e-01, 1.360404640436172485e-01, -1.542872097343206406e-02, 2.845433354377746582e-02, -1.845645457506179810e-01, -1.225074529647827148e-01, -3.285787999629974365e-02, -1.001340150833129883e-01, -1.359156966209411621e-01, -1.559595912694931030e-01, 1.677165329456329346e-01, 2.065039239823818207e-02, 2.059021145105361938e-01, 1.997603476047515869e-01, 1.118415966629981995e-02, -1.669060736894607544e-01, 1.189958397299051285e-02, 1.815597712993621826e-02, 1.189185976982116699e-01, -6.593559682369232178e-02, 1.784856617450714111e-01, -7.351690530776977539e-02, -1.154675632715225220e-01, 1.733555942773818970e-01, -1.591280102729797363e-02, -1.156584471464157104e-01, 1.738996356725692749e-01, 7.835795730352401733e-02, 1.015360578894615173e-01, 6.157309561967849731e-02
-1.056864205747842789e-02, 8.974708616733551025e-02, 1.060950905084609985e-01, 1.584321558475494385e-01, -1.797241121530532837e-01, 1.173688471317291260e-02, 1.841717213392257690e-01, -2.175789326429367065e-02, 9.138807654380798340e-03, 6.068219244480133057e-02, -1.312511563301086426e-01, -5.759778246283531189e-02, -1.878264360129833221e-02, -1.336203515529632568e-01, 6.982704252004623413e-02, -9.992957115173339844e-02, 3.918444365262985229e-02, -2.023663967847824097e-01, 1.174367219209671021e-01, -3.059309720993041992e-02, -6.989627331495285034e-02, 4.493710771203041077e-02, -5.012173205614089966e-03, -1.570676267147064209e-01, 6.053568050265312195e-02, 1.770838052034378052e-01, -6.274947430938482285e-03, 7.060676813125610352e-03, 1.282228976488113403e-01, -1.529811471700668335e-01, 1.400704234838485718e-01, 3.799878805875778198e-02
1.213533282279968262e-01, 7.685687392950057983e-03, 2.895403653383255005e-02, -6.046758219599723816e-02, -9.231651574373245239e-02, 1.353323459625244141e-03, -1.873365342617034912e-01, -5.847695469856262207e-02, -3.590479493141174316e-02, -8.966845460236072540e-03, -2.149039953947067261e-01, -1.446239650249481201e-01, 1.266922354698181152e-01, 3.963569179177284241e-02, -4.488487914204597473e-02, 1.385181993246078491e-01, -1.258901655673980713e-01, 2.358307093381881714e-01, -5.914532020688056946e-02, -7.054537534713745117e-03, 5.408754944801330566e-02, 4.905489459633827209e-02, 6.427210569381713867e-02, -1.064944565296173096e-01, 6.850656867027282715e-02, 1.304085701704025269e-01, -1.439934819936752319e-01, -6.266437470912933350e-02, 1.380422860383987427e-01, -5.214029178023338318e-02, -2.033827155828475952e-01, 1.940470635890960693e-01
-1.039966344833374023e-01, -3.991642966866493225e-02, -1.137272194027900696e-01, 4.080853983759880066e-02, -1.537184715270996094e-01, -1.096436083316802979e-01, -5.999271199107170105e-02, 2.312521636486053467e-01, -4.013678431510925293e-02, -1.555794626474380493e-01, -1.963836550712585449e-01, -1.587016880512237549e-01, -1.113691180944442749e-01, 5.371667444705963135e-02, 3.093496151268482208e-02, -5.814751982688903809e-02, 1.738022416830062866e-01, -3.016430139541625977e-02, 3.552120923995971680e-02, -1.910252273082733154e-01, 1.727706938982009888e-01, -1.951736584305763245e-02, 1.986089050769805908e-01, -1.168386414647102356e-01, 9.167499095201492310e-02, -1.563929915428161621e-01, 1.524704098701477051e-01, -9.020867943763732910e-02, -8.146771788597106934e-02, -1.853661388158798218e-01, 2.404371974989771843e-03, -8.329888433218002319e-02
1.436347812414169312e-01, -6.089023128151893616e-02, 1.199091523885726929e-01, -1.304761916399002075e-01, 1.292820181697607040e-02, 1.263511180877685547e-02, 6.109073758125305176e-02, 5.773433670401573181e-02, 2.086703479290008545e-01, -1.014001108705997467e-02, -1.256867647171020508e-01, 1.047064587473869324e-01, -5.943208560347557068e-02, -1.250343024730682373e-01, 1.407387852668762207e-01, 1.465253829956054688e-01, -9.589814394712448120e-02, 9.197620302438735962e-02, 1.406059265136718750e-01, 1.470405459403991699e-01, 2.469077520072460175e-02, 1.330626010894775391e-01, 3.500927239656448364e-02, 2.050428837537765503e-01, 4.159366711974143982e-02, -1.013572141528129578e-01, -8.431816473603248596e-03, 7.191413640975952148e-02, -9.115695953369140625e-02, -3.890952467918395996e-02, -1.004151776432991028e-01, 5.046419799327850342e-02
-2.660720981657505035e-02, 1.674798578023910522e-01, 9.144956618547439575e-02, -1.279445588588714600e-01, 1.094145327806472778e-01, 1.192569136619567871e-01, 6.240205094218254089e-02, -1.255701184272766113e-01, -2.030464112758636475e-01, -2.160195820033550262e-02, -7.409767806529998779e-02, 1.117926687002182007e-01, 1.431853473186492920e-01, 3.056366369128227234e-02, 2.061440944671630859e-01, 1.025203317403793335e-01, 6.806161999702453613e-02, 1.853935271501541138e-01, -6.678333505988121033e-03, -1.973365545272827148e-01, -2.087600827217102051e-01, -1.591406911611557007e-01, -4.956544935703277588e-02, 1.727502346038818359e-01, -2.627346850931644440e-02, -1.591111123561859131e-01, -1.514650434255599976e-01, -6.496010720729827881e-02, -9.407565742731094360e-02, 8.890560269355773926e-02, -1.338731199502944946e-01, 8.530830591917037964e-02
1.851988136768341064e-01, -6.875511258840560913e-02, 1.781525611877441406e-01, -1.783494651317596436e-02, -2.552546188235282898e-02, -8.178398013114929199e-03, 5.947172641754150391e-02, 1.088710576295852661e-01, 1.273073256015777588e-02, 1.822708547115325928e-01, -8.406074345111846924e-02, -1.217380613088607788e-01, -9.540881961584091187e-02, -1.469326019287109375e-01, -6.770214438438415527e-02, 1.270241290330886841e-01, -2.179946750402450562e-02, -1.343581676483154297e-01, -3.958281595259904861e-03, -1.449471712112426758e-01, -1.675649732351303101e-01, 1.757494658231735229e-01, 1.401153057813644409e-01, -5.048231407999992371e-02, 2.094696611166000366e-01, -5.748655647039413452e-02, 1.747876107692718506e-01, -1.692132949829101562e-01, -1.199688985943794250e-01, -2.411924116313457489e-02, 1.165895815938711166e-02, -2.737621404230594635e-02
-1.412608325481414795e-01, 5.998114868998527527e-02, 8.651849627494812012e-02, -9.173828363418579102e-02, -1.923006325960159302e-01, 1.530107557773590088e-01, 8.935308456420898438e-02, -7.710035890340805054e-02, -5.928471684455871582e-02, -2.048649080097675323e-02, 1.777513623237609863e-01, -1.502511948347091675e-01, 4.762597382068634033e-02, -1.633514910936355591e-01, -9.953911602497100830e-02, -2.780757099390029907e-02, 2.299266159534454346e-01, 6.161367055028676987e-04, -8.747987449169158936e-02, 1.625949740409851074e-01, -1.421742439270019531e-01, -9.647101908922195435e-02, 1.420647501945495605e-01, -4.650051891803741455e-02, -1.299638021737337112e-02, 1.184872910380363464e-01, -1.660452336072921753e-01, 9.713500738143920898e-03, -9.608455747365951538e-02, -2.195448577404022217e-01, 1.256376225501298904e-02, 8.171197026968002319e-02
