-8.709196448326110840e-01, 1.404548138380050659e-01, -2.061141580343246460e-01, -2.576411962509155273e-01, -5.007821917533874512e-01
-4.466071426868438721e-01, -1.427692174911499023e+00, -1.433742284774780273e+00, -9.751202166080474854e-02, 4.796406030654907227e-01
5.997702479362487793e-01, -1.016448810696601868e-01, -7.081856727600097656e-01, 3.933652341365814209e-01, 3.484416902065277100e-01
5.885145068168640137e-01, 5.595111250877380371e-01, -1.407311409711837769e-01, 2.530571073293685913e-03, -8.652631044387817383e-01
-1.246881127357482910e+00, -1.835153251886367798e-01, 2.374616116285324097e-01, 9.460650086402893066e-01, -8.829655051231384277e-01
2.914704680442810059e-01, -4.221646189689636230e-01, 5.148517489433288574e-01, -8.168274760246276855e-01, -3.279578983783721924e-01
-1.300889551639556885e-01, -3.832494914531707764e-01, -8.576313853263854980e-01, -5.289246439933776855e-01, -1.385944962501525879e+00
-5.714963078498840332e-01, 7.491001486778259277e-01, -7.379131317138671875e-01, -1.111103773117065430e+00, 3.476018905639648438e-01
