{0.06822257, -0.41815698, 0.10512438, 0.23154189, 0.15916649, 0.2915595, 0.052574947, 0.083186015, 0.6254169, -0.18668595, 0.056474082, 0.10677501, 0.4150076, -0.20172966, -0.3290456, 0.30758455},
{-0.3146487, -0.2266356, -0.41538647, 0.025720727, 0.22261992, 0.17212655, -0.08040375, 0.09017947, -0.05714206, -0.050269045, -0.2942272, -0.079762526, -0.0088300165, 0.19014513, 0.0917766, -0.12241896},
{0.274456, 0.56809545, 0.06490026, 0.31851858, -0.09064387, -0.24042685, 0.349793, -0.05147151, 0.00516161, 0.13839701, 0.27990976, 0.28494027, 0.0022643653, -0.6889742, 0.49286982, 0.35278246},
{0.08771343, 0.22448666, -0.100243926, -0.100131586, -0.016208857, 0.442916, -0.35843894, -0.036359448, 0.30550238, 0.27556825, -0.18559821, -0.16402034, -0.16295877, 0.3461904, -0.059948333, -0.14385457},
{-0.21938683, -0.01901403, -0.29827237, 0.2814303, -0.29387745, -0.30099034, -0.037500467, 0.13710228, -0.4070922, 0.21272883, 0.027367443, -0.05253718, -0.23433675, -0.15847583, -0.033899512, -0.35739714},
{-0.22187412, -0.3927061, 0.27062383, 0.16447052, -0.09633556, -0.067801, -0.26215512, -0.3121053, -0.28245962, 0.42648998, -0.3339472, 0.37373957, 0.02699259, 0.07252589, -0.1454522, 0.20403478},
{0.38885882, -0.14798144, -0.046278406, -0.42482886, -0.29263607, 0.035209246, -0.2292158, -0.13810544, 0.16841976, -0.40059635, 0.24176575, -0.36831328, 0.037845526, -0.062422663, -0.042078614, 0.37294927},
{-0.042619508, -0.045446854, 0.2008598, 0.14564897, -0.4241204, 0.088724256, -0.42186257, 0.07310594, 0.019621387, 0.084831625, -0.2027492, 0.283292, 0.2570668, -0.42300922, 0.040657338, -0.42241138},
{-0.25520402, 0.19847141, 0.17218639, -0.18748076, 0.091593266, 0.79687506, 0.086935654, -0.13945398, -0.1446219, -0.19686575, -0.37190387, -0.08155972, 0.23463613, -0.39298433, -0.27993083, 0.16018437},
{0.024418842, -0.32515207, -0.39612567, 0.32695204, 0.19841547, -0.102596514, -0.20036122, -0.023230305, -0.13523437, 0.36004457, 0.16359642, 0.35981616, 0.002102805, -0.45694777, 0.1623194, 0.3526973},
{-0.4082155, 0.40031743, -0.409362, 0.2515402, 0.17398918, 0.41153514, -0.21871081, 0.02986721, 0.13218631, -0.30399638, 0.16572726, -0.448033, 0.38876578, -0.09097115, -0.23380394, -0.15557091},
{0.19310331, -0.09392587, -0.36708492, -0.31404433, -0.09246258, 0.19087175, 0.3768634, 0.37289327, 0.24034125, -0.18640068, 0.06958733, -0.1297088, 0.08062374, 0.4085437, 0.007959669, 0.26738673},
{-0.04892872, -0.08398018, -0.3246017, 0.054369546, 0.23490708, -0.3376467, -0.3155546, 0.074018694, 0.13786277, -0.13537902, 0.15265918, -0.18798134, 0.113783136, 0.3928923, -0.011610989, 0.05094163},
{-0.038830943, -0.3781547, -0.33036408, 0.48914704, 0.27962866, -0.27414384, -0.112542145, 0.23226367, 0.003945676, 0.30141953, 0.0042972225, 0.3958989, 0.069478706, -0.43486756, 0.26577336, -0.32873204},
{0.29321122, 0.059673756, 0.2469164, -0.22387573, 0.22061758, -0.28870875, 0.37949416, -0.021640511, -0.32752007, -0.41976997, 0.39281535, -0.5324001, 0.112761125, 0.08674324, -0.2908527, -0.3447254},
{-0.24190056, -0.20189947, 0.105606265, -0.14138067, -0.58856654, 0.13822548, -0.29530457, 0.12906584, 0.27995268, 0.106665835, 0.012684062, 0.079205304, 0.23536915, -0.25282857, -0.06379949, 0.017814184}