-8.975556492805480957e-02, 2.961101569235324860e-02, -1.180683746933937073e-01, -8.138455450534820557e-02, 1.360133737325668335e-01, 2.527928948402404785e-01, 2.090879380702972412e-01, 1.018851175904273987e-01, -3.320087790489196777e-01, -1.354280277155339718e-03, 3.749277815222740173e-02, 1.388882100582122803e-01, -3.919737413525581360e-02, 1.916516274213790894e-01, 1.305319815874099731e-01, -2.583799064159393311e-01
-1.115049198269844055e-01, -2.450992316007614136e-01, 1.676906086504459381e-02, 5.102917179465293884e-02, -2.392652332782745361e-01, 1.891314685344696045e-01, 5.834336206316947937e-02, 8.869268000125885010e-03, 1.033815648406744003e-02, 3.119490295648574829e-02, 3.452367335557937622e-02, -7.219853997230529785e-02, -1.039652153849601746e-01, 1.275998502969741821e-01, 3.428821861743927002e-01, -3.643757402896881104e-01
-1.836060136556625366e-01, 3.403519093990325928e-02, 4.620178416371345520e-02, 5.023966543376445770e-03, 1.701765954494476318e-01, -1.631582379341125488e-01, 6.274633854627609253e-02, -9.258844074793159962e-04, -2.965937256813049316e-01, 9.354960918426513672e-02, 1.539949625730514526e-01, 2.816344201564788818e-01, 1.445640027523040771e-01, 2.227086871862411499e-01, 5.357257090508937836e-03, -3.358038067817687988e-01
-3.275981843471527100e-01, -1.947464421391487122e-02, 1.453479379415512085e-01, 1.483284980058670044e-01, -3.328987956047058105e-02, 6.250213086605072021e-02, 1.351885348558425903e-01, -7.887403666973114014e-02, -3.317065164446830750e-02, 9.804650396108627319e-02, -2.288266271352767944e-01, -2.394511252641677856e-01, -3.103075921535491943e-01, -1.899169832468032837e-01, -1.304675042629241943e-01, -2.969021722674369812e-02
2.427494376897811890e-01, 4.682950302958488464e-02, 4.821968823671340942e-02, 2.111633419990539551e-01, -2.205741107463836670e-01, 2.558500766754150391e-01, 4.612997919321060181e-02, -1.689494550228118896e-01, -1.004769206047058105e-01, -1.003886223770678043e-03, -1.260154396295547485e-01, -1.388913989067077637e-01, -3.394396603107452393e-01, 2.650713920593261719e-01, 1.697118729352951050e-01, 6.441076844930648804e-02
-2.855513393878936768e-01, 1.088115498423576355e-01, -1.006233692169189453e-01, 1.097258087247610092e-02, 3.701824694871902466e-02, 1.098607704043388367e-01, 3.317779675126075745e-02, 6.068379804491996765e-02, 3.260293602943420410e-01, 1.034598201513290405e-01, 1.236016105394810438e-04, 4.405356645584106445e-01, 1.615098863840103149e-01, 3.752930089831352234e-02, -1.306623369455337524e-01, 1.950539946556091309e-01
1.556709259748458862e-01, -9.912105649709701538e-02, -3.234843909740447998e-02, -1.653425693511962891e-01, 1.327563915401697159e-02, -1.155883818864822388e-01, -2.030021697282791138e-01, 2.005872279405593872e-01, -6.917098164558410645e-02, 1.848565638065338135e-01, -2.019427120685577393e-01, 5.926741659641265869e-02, 1.352994143962860107e-01, -4.607468098402023315e-02, 8.431436493992805481e-03, 1.899444907903671265e-01
2.605529725551605225e-01, 1.393272429704666138e-01, -2.181089222431182861e-01, -8.270077407360076904e-02, -1.353697329759597778e-01, 1.529692262411117554e-01, -1.600854545831680298e-01, 2.590328454971313477e-01, 2.246164083480834961e-01, 2.331323623657226562e-01, 1.410808563232421875e-01, 3.399524390697479248e-01, -1.965432316064834595e-01, 1.514641940593719482e-01, -7.308190315961837769e-02, -8.463407307863235474e-02
4.739740863442420959e-02, 2.931918203830718994e-01, -9.982965141534805298e-02, 9.128047525882720947e-02, 9.290194138884544373e-03, -1.728457063436508179e-01, -1.350505799055099487e-01, 1.261515021324157715e-01, -1.693417504429817200e-02, -1.328162197023630142e-02, -2.766189575195312500e-01, 1.017642021179199219e-02, -2.145834416151046753e-01, 8.479512482881546021e-02, 2.305399812757968903e-02, 3.000322878360748291e-01
1.247735545039176941e-01, -1.372363716363906860e-01, 3.663050755858421326e-02, 1.523901969194412231e-01, -1.142026931047439575e-01, 9.541862457990646362e-02, -1.506194844841957092e-02, 3.640575110912322998e-01, 2.309157997369766235e-01, -1.355672031641006470e-01, -1.361459493637084961e-01, 6.254047900438308716e-02, -1.169245764613151550e-01, 7.473701238632202148e-02, 6.082182377576828003e-02, -9.825489670038223267e-02
3.568609431385993958e-02, 2.734098732471466064e-01, -5.958292633295059204e-03, 5.241728946566581726e-02, -2.582317292690277100e-01, -1.897166371345520020e-01, -5.414670333266258240e-03, -1.421248614788055420e-01, -5.927114933729171753e-02, 2.214035391807556152e-01, -5.051419511437416077e-02, 2.578977644443511963e-01, -4.002619069069623947e-03, 1.684538275003433228e-01, 2.285885959863662720e-01, 2.298382669687271118e-01
-1.448259502649307251e-01, 1.447738893330097198e-02, 2.223839759826660156e-01, 2.806148305535316467e-02, 4.730059299618005753e-03, 9.957990050315856934e-02, 6.984192878007888794e-02, 3.171562850475311279e-01, 2.462991029024124146e-01, -8.521467447280883789e-02, 1.630717068910598755e-01, 1.496872454881668091e-01, 2.688760161399841309e-01, -1.287671923637390137e-01, -4.777922481298446655e-02, 3.027567863464355469e-01
1.731059104204177856e-01, -1.258606016635894775e-01, 6.124719232320785522e-02, -2.133786529302597046e-01, 1.657518148422241211e-01, -1.209541559219360352e-01, 1.670285910367965698e-01, 1.335008889436721802e-01, -6.850938498973846436e-02, 3.444743454456329346e-01, -1.325218826532363892e-01, 2.480955123901367188e-01, -1.241199895739555359e-01, -1.560234874486923218e-01, 2.793551683425903320e-01, 2.456965595483779907e-01
-4.506314918398857117e-02, -1.515467911958694458e-01, 5.326112732291221619e-02, 1.101643666625022888e-01, -6.347278505563735962e-02, -2.215719372034072876e-01, 5.360655114054679871e-02, 5.888826772570610046e-02, 2.472856491804122925e-01, 1.792239546775817871e-01, -1.990767717361450195e-01, 1.955190300941467285e-01, -3.636469691991806030e-02, 7.682301104068756104e-02, 2.340173870325088501e-01, 5.671379342675209045e-02
-8.801714330911636353e-02, 1.956823766231536865e-01, 2.927123568952083588e-02, -2.459251433610916138e-01, 7.991932332515716553e-03, 2.680584602057933807e-02, 1.277486979961395264e-01, 2.251104116439819336e-01, -2.683509290218353271e-01, 2.255283594131469727e-01, -3.312594592571258545e-01, 1.615121727809309959e-03, -3.662217259407043457e-01, 1.174673661589622498e-01, 6.133519113063812256e-02, 1.174733415246009827e-02
8.418259024620056152e-02, -1.919729411602020264e-01, 3.717608377337455750e-02, -1.691163927316665649e-01, 2.566239424049854279e-02, -7.352452725172042847e-02, 6.038371007889509201e-03, -5.268638953566551208e-02, 1.917873322963714600e-01, -1.370480805635452271e-01, -2.109926342964172363e-01, 3.573377728462219238e-01, -1.899022012948989868e-01, 5.601008236408233643e-02, 5.812666565179824829e-02, 4.727085307240486145e-02
1.708224862813949585e-01, 1.092441752552986145e-02, 2.417307943105697632e-01, 1.602717638015747070e-01, 9.351419657468795776e-02, -2.818529605865478516e-01, -1.692427396774291992e-01, -3.188630938529968262e-01, -7.920037209987640381e-02, 2.597347199916839600e-01, 1.326272040605545044e-01, 1.052456796169281006e-01, 1.372345983982086182e-01, 2.092302143573760986e-01, -7.824686914682388306e-02, 3.302064836025238037e-01
-1.630045101046562195e-02, -1.721601560711860657e-02, -1.052619963884353638e-01, 8.650581352412700653e-03, 1.454602740705013275e-02, -1.806842163205146790e-02, 1.786828190088272095e-01, 2.921475842595100403e-02, -1.081671044230461121e-01, 2.954665422439575195e-01, -1.996459513902664185e-01, 2.227411568164825439e-01, 1.303105056285858154e-01, 1.163893193006515503e-01, 1.969031393527984619e-01, 1.852367818355560303e-01
2.510673180222511292e-02, -6.264657527208328247e-02, 1.334642618894577026e-01, 1.074239313602447510e-01, 2.435045391321182251e-01, 2.924698889255523682e-01, -1.737693101167678833e-01, -3.550687059760093689e-02, -2.434846460819244385e-01, -1.247230768203735352e-01, 1.149008870124816895e-01, 7.650808244943618774e-02, -1.060847043991088867e-01, 1.046807840466499329e-01, 6.178519874811172485e-02, -3.759208321571350098e-01
-3.516442179679870605e-01, -4.567657038569450378e-02, -3.299661912024021149e-03, 5.717022716999053955e-02, 6.419979967176914215e-03, -7.698757946491241455e-02, 1.773069500923156738e-01, -2.114933431148529053e-01, -5.786327645182609558e-03, -1.369235664606094360e-02, 1.361409202218055725e-02, -2.518376410007476807e-01, -1.263956129550933838e-01, -9.456017613410949707e-02, 1.251593232154846191e-01, -2.513317167758941650e-01
-3.111342191696166992e-01, -2.081077359616756439e-02, 1.587611734867095947e-01, 2.060012668371200562e-01, 1.566197574138641357e-01, 7.756182551383972168e-02, 8.802136033773422241e-02, -3.340883851051330566e-01, -1.551670487970113754e-03, 1.494198292493820190e-01, 3.089084923267364502e-01, -2.031006664037704468e-01, 9.712170809507369995e-02, -6.115540489554405212e-02, -2.117993533611297607e-01, -2.570911943912506104e-01
-2.844857275485992432e-01, 8.585747331380844116e-03, -1.634435206651687622e-01, -1.358031183481216431e-01, 2.208033204078674316e-01, -3.330683708190917969e-02, -8.147298544645309448e-02, -3.560090065002441406e-01, 6.771796196699142456e-02, -7.896502315998077393e-02, 9.322147071361541748e-02, -1.267458200454711914e-01, -1.266426593065261841e-01, 2.788045071065425873e-02, -7.287524640560150146e-02, -1.852914839982986450e-01
-1.727157831192016602e-01, -1.798412799835205078e-01, 1.004303395748138428e-01, 2.385899722576141357e-01, 5.337382480502128601e-02, 1.250272840261459351e-01, 1.017308980226516724e-01, 5.678777582943439484e-03, -3.688529878854751587e-02, -2.953222393989562988e-01, -2.275765389204025269e-01, 5.169281270354986191e-03, 1.050205677747726440e-01, -1.417531520128250122e-01, -2.456957697868347168e-01, -1.577518880367279053e-01
-2.717106044292449951e-01, 5.171858891844749451e-02, -2.883160412311553955e-01, -5.764449760317802429e-02, -1.423896402120590210e-01, 2.331587374210357666e-01, -1.027633994817733765e-01, -2.092552557587623596e-02, -4.458446428179740906e-02, 2.976103723049163818e-01, -1.948064938187599182e-02, -1.413080543279647827e-01, 2.877576649188995361e-02, 1.542342361062765121e-02, -3.172291815280914307e-01, 5.998998880386352539e-02
6.620967388153076172e-02, 8.728239685297012329e-02, -2.894521318376064301e-02, 1.458858102560043335e-01, 1.225870549678802490e-01, 1.599567532539367676e-01, -1.183347329497337341e-01, -1.939285174012184143e-02, -1.934803277254104614e-01, -7.150443270802497864e-03, -1.007983982563018799e-01, 2.202565222978591919e-01, -1.633709222078323364e-01, -1.393388956785202026e-01, 4.154393449425697327e-02, 9.454762563109397888e-03
-2.273115329444408417e-02, 4.358104988932609558e-02, -7.549776136875152588e-02, -2.018464505672454834e-01, -2.362565509974956512e-02, -1.865482181310653687e-01, -1.535636335611343384e-01, 1.888314038515090942e-01, 6.844720989465713501e-02, 1.427197307348251343e-01, 1.539256721735000610e-01, -5.796699225902557373e-02, -8.228065818548202515e-02, 4.199371486902236938e-02, -1.302415728569030762e-01, 1.444739252328872681e-01
-1.995739191770553589e-01, 1.450188905000686646e-01, -3.541731461882591248e-02, -6.493107229471206665e-02, -1.110052764415740967e-01, 1.454444229602813721e-01, -1.781140565872192383e-01, 6.916388124227523804e-02, -6.960794329643249512e-02, 5.610836669802665710e-02, 5.237907543778419495e-02, 2.946153879165649414e-01, -6.836597621440887451e-02, 2.505340576171875000e-01, 1.732099652290344238e-01, -1.641641557216644287e-01
1.672492623329162598e-01, 5.049036815762519836e-02, 4.965691268444061279e-02, 6.084649264812469482e-02, -1.238020956516265869e-01, 1.283338367938995361e-01, -2.074496150016784668e-01, 1.030907854437828064e-01, 9.014591574668884277e-02, 2.852880954742431641e-01, -2.857373468577861786e-02, 2.594549655914306641e-01, -7.463810592889785767e-02, -4.081901907920837402e-02, 1.477906256914138794e-01, -5.124766752123832703e-02
3.835035860538482666e-01, -1.157961203716695309e-03, 6.395746767520904541e-02, 9.022882580757141113e-02, -2.193258702754974365e-01, 4.738939926028251648e-02, -3.142486512660980225e-02, -1.590209007263183594e-01, -7.422158122062683105e-02, 1.462340652942657471e-01, -2.303236722946166992e-01, 8.721771091222763062e-02, -1.449320614337921143e-01, 1.762517839670181274e-01, 3.934329841285943985e-03, 2.982658445835113525e-01
4.581984132528305054e-02, -4.364639148116111755e-02, 3.891099989414215088e-02, 1.372219529002904892e-02, -4.829760640859603882e-02, -1.296484936028718948e-02, 6.985588371753692627e-02, 1.097136288881301880e-01, 2.274937629699707031e-01, 3.832075893878936768e-01, -3.834346309304237366e-02, 1.619689315557479858e-01, 2.590590119361877441e-01, -6.919041275978088379e-02, 1.701110042631626129e-02, 2.942907214164733887e-01
-1.244811573997139931e-03, 1.799395829439163208e-01, 1.210457310080528259e-01, -2.046425938606262207e-01, -2.591117024421691895e-01, -1.898721903562545776e-01, -1.717826873064041138e-01, 1.404577791690826416e-01, 2.568532228469848633e-01, 2.547558546066284180e-01, -1.320570111274719238e-01, 9.145741164684295654e-02, -7.966348528861999512e-02, 1.155006960034370422e-01, 2.948891818523406982e-01, -8.147692680358886719e-02
2.441883981227874756e-01, 7.653811015188694000e-03, 1.044631004333496094e-02, 6.050752475857734680e-02, -2.178913056850433350e-01, -1.624458096921443939e-02, 1.062825396656990051e-01, 4.758451506495475769e-02, 1.711075901985168457e-01, 4.423854872584342957e-02, -1.196948885917663574e-01, 1.921415030956268311e-01, 1.740944236516952515e-01, -1.433142274618148804e-01, -1.077327877283096313e-01, 2.919945400208234787e-03
-3.337159752845764160e-02, 2.782870531082153320e-01, 2.090658992528915405e-01, 2.723036333918571472e-02, -4.093556851148605347e-02, -2.122845351696014404e-01, -1.331621408462524414e-01, 7.819083333015441895e-02, 8.811666071414947510e-02, 1.613412350416183472e-01, -1.531972438097000122e-01, -1.345673203468322754e-01, 3.134904429316520691e-03, -1.255136430263519287e-01, 3.118705451488494873e-01, -7.872042059898376465e-02
3.143975138664245605e-02, 4.092516377568244934e-02, 1.342548727989196777e-01, -5.421923100948333740e-02, 5.912239849567413330e-02, -2.620007991790771484e-01, -2.584756314754486084e-01, 1.758949756622314453e-01, -6.377392262220382690e-02, -1.816226094961166382e-01, -9.521131962537765503e-02, -8.081643283367156982e-02, -2.270382493734359741e-01, 2.444253563880920410e-01, 1.271110624074935913e-01, -4.354275763034820557e-02
3.614851534366607666e-01, 2.663900144398212433e-02, -1.136696636676788330e-01, 4.560545459389686584e-02, 3.399362042546272278e-02, -2.589181959629058838e-01, -2.218623608350753784e-01, -1.837640553712844849e-01, 1.376032382249832153e-01, 2.280552685260772705e-01, -2.211969196796417236e-01, 3.822613134980201721e-02, -1.688665896654129028e-01, 1.498660892248153687e-01, 3.630322590470314026e-02, 1.051648184657096863e-01
2.233663946390151978e-01, -1.003861203789710999e-01, 1.421746313571929932e-01, -6.371300667524337769e-02, -1.570752114057540894e-01, 7.155954837799072266e-02, -2.077747732400894165e-01, -5.797397345304489136e-02, 2.123572230339050293e-01, 1.967078298330307007e-01, 9.026589989662170410e-02, 2.489470541477203369e-01, -8.918001502752304077e-02, 9.213977307081222534e-02, 2.369571030139923096e-01, -9.118084795773029327e-03
4.550959169864654541e-02, -1.234830543398857117e-01, 2.435354590415954590e-01, 1.259359568357467651e-01, -2.194516211748123169e-01, 1.160264834761619568e-01, 1.548569202423095703e-01, 5.642897635698318481e-02, -1.985473036766052246e-01, -2.895120680332183838e-01, -1.854680031538009644e-01, 3.671035915613174438e-02, -1.724527031183242798e-01, -6.990407593548297882e-03, 2.089075744152069092e-02, -1.956981718540191650e-01
-2.034021466970443726e-01, 1.151004731655120850e-01, -4.140377044677734375e-02, -3.269906640052795410e-01, -5.861001834273338318e-02, 8.373673260211944580e-02, -1.400321125984191895e-01, -1.468075364828109741e-01, -2.179874628782272339e-01, -2.337308973073959351e-01, 2.172310650348663330e-01, -2.103248238563537598e-01, -2.832151353359222412e-01, -9.348923712968826294e-02, 6.738875806331634521e-02, -1.669537574052810669e-01
4.424152150750160217e-02, -1.977560669183731079e-01, 2.596428394317626953e-01, -1.744917780160903931e-01, 8.990944921970367432e-02, -7.515703886747360229e-02, 1.505644153803586960e-02, -2.293085157871246338e-01, -7.413392513990402222e-02, -1.021186560392379761e-01, 1.222360506653785706e-01, -4.429195821285247803e-02, 1.156266555190086365e-01, 1.349701434373855591e-01, 1.286006569862365723e-01, -6.662056595087051392e-02
1.188895925879478455e-01, -3.703949600458145142e-02, 1.270728260278701782e-01, -2.279890701174736023e-02, -1.107299607247114182e-02, 3.994023501873016357e-01, 3.384483456611633301e-01, 9.452491998672485352e-02, -2.652325034141540527e-01, -2.578316032886505127e-01, -1.453006826341152191e-02, -8.677684515714645386e-02, -3.168009519577026367e-01, 8.011510223150253296e-02, 2.353010624647140503e-01, 1.024499442428350449e-02
5.154987424612045288e-02, 6.375554203987121582e-02, 5.599436536431312561e-02, 1.120948791503906250e-02, 2.274317108094692230e-02, -3.531933948397636414e-02, 2.438331544399261475e-01, 1.248949095606803894e-01, -1.755251884460449219e-01, -9.522718936204910278e-02, -8.490081876516342163e-02, 3.988946229219436646e-02, 3.438189625740051270e-02, 1.015218347311019897e-01, -9.485877305269241333e-02, -4.031647741794586182e-02
-1.933492571115493774e-01, 1.539579778909683228e-01, 2.005009502172470093e-01, 1.976469531655311584e-02, -2.670404613018035889e-01, 3.107551932334899902e-01, 5.444733798503875732e-02, 1.032373234629631042e-01, 1.386189013719558716e-01, 9.837558493018150330e-03, -9.375218302011489868e-02, 1.495026201009750366e-01, -3.633403778076171875e-01, -1.639651656150817871e-01, 3.466472923755645752e-01, 4.726627841591835022e-02
-1.630422472953796387e-02, -2.514560893177986145e-02, -2.370241433382034302e-01, -2.790713906288146973e-01, 8.904916793107986450e-02, -1.442576348781585693e-01, -1.685286015272140503e-01, -1.639808863401412964e-01, 7.920408993959426880e-02, 1.923890113830566406e-01, -3.080182671546936035e-01, 1.929542422294616699e-01, 9.468826651573181152e-02, -1.388121992349624634e-01, -9.448602795600891113e-03, 1.516913175582885742e-01
1.574759632349014282e-01, -1.125886663794517517e-01, -1.733403205871582031e-01, -1.467288583517074585e-01, -6.207066588103771210e-03, 2.365893684327602386e-02, -8.754699677228927612e-02, 2.194456905126571655e-01, 2.038294076919555664e-01, -1.163507327437400818e-01, -1.939339339733123779e-01, 1.077814027667045593e-01, 1.679822951555252075e-01, -6.011700257658958435e-02, -1.040177270770072937e-01, 1.105453446507453918e-01
-1.153921708464622498e-01, 1.204065396450459957e-03, -1.263384968042373657e-01, -3.096087276935577393e-01, 1.040161699056625366e-01, -2.841131389141082764e-01, -4.559421911835670471e-02, 5.218085274100303650e-02, -8.687626570463180542e-03, 9.543773531913757324e-02, -1.031019464135169983e-01, 9.045329689979553223e-02, -1.200210675597190857e-02, -1.420545391738414764e-02, 1.196651607751846313e-01, -6.793576758354902267e-03
6.063402444124221802e-02, 4.899303615093231201e-02, -1.637623757123947144e-01, -5.943599343299865723e-02, -1.241551488637924194e-01, -1.397888064384460449e-01, 3.537308052182197571e-02, -1.701218634843826294e-01, -8.811796456575393677e-02, 1.871942132711410522e-01, 2.716328203678131104e-02, 1.759318262338638306e-02, -2.521497607231140137e-01, -5.559343472123146057e-02, 7.988578826189041138e-02, -1.083486303687095642e-01
8.537029474973678589e-02, 7.716692239046096802e-02, 2.610762976109981537e-02, 8.188474178314208984e-02, -2.133397012948989868e-02, 3.992110863327980042e-02, -1.427664458751678467e-01, -6.587406992912292480e-02, -6.012894958257675171e-02, -3.697942197322845459e-02, -1.192333251237869263e-01, 2.431260645389556885e-01, -1.451944815926253796e-03, 3.340363800525665283e-01, 1.324180662631988525e-01, 1.681271940469741821e-01
-1.971189826726913452e-01, 7.085513323545455933e-02, -1.524402797222137451e-01, -2.311382442712783813e-01, -1.257930845022201538e-01, -2.122938334941864014e-01, 7.172950357198715210e-02, 8.350750058889389038e-02, -1.104179099202156067e-01, 1.453470438718795776e-01, 4.604323208332061768e-02, 5.555261299014091492e-02, 1.138759329915046692e-01, 1.181195378303527832e-01, 1.754519194364547729e-01, 4.552937671542167664e-02
-1.262321919202804565e-01, -6.718943268060684204e-02, 1.542543619871139526e-01, 2.144806087017059326e-02, -1.269846111536026001e-01, 1.055734977126121521e-02, -1.324059814214706421e-01, 7.363302260637283325e-02, 7.170502841472625732e-02, 1.404191702604293823e-01, -2.781332433223724365e-01, 1.191357225179672241e-01, 6.540820747613906860e-02, -1.292425543069839478e-01, -4.452417790889739990e-02, 1.002692133188247681e-01
-9.657299518585205078e-02, 1.174800470471382141e-01, -4.825178533792495728e-02, 9.319134056568145752e-02, 2.120703831315040588e-02, -2.933699190616607666e-01, 4.326668009161949158e-02, -1.046969443559646606e-01, 2.019619941711425781e-02, -6.695116311311721802e-02, -1.984531581401824951e-01, 3.779266178607940674e-01, -2.054655551910400391e-01, -7.545161247253417969e-02, 2.359352856874465942e-01, 8.726924657821655273e-02
-1.430080682039260864e-01, -1.557943969964981079e-02, -1.920609176158905029e-01, -2.655968964099884033e-01, 1.066225469112396240e-01, 1.059716567397117615e-01, 8.367044478654861450e-02, -1.498789526522159576e-02, 4.006129875779151917e-02, 1.935735493898391724e-01, -1.757086366415023804e-01, 1.546799298375844955e-02, -2.851226329803466797e-01, -2.629458531737327576e-02, 2.738604247570037842e-01, -1.519252266734838486e-02
3.302453756332397461e-01, -3.143360838294029236e-02, 2.900980226695537567e-02, 7.380500435829162598e-02, -2.283461093902587891e-01, -3.987257555127143860e-02, 1.757552623748779297e-01, 2.149011343717575073e-01, -1.484061032533645630e-02, 5.993121769279241562e-03, -2.364054918289184570e-01, -5.528287589550018311e-02, 1.335081309080123901e-01, -1.935180425643920898e-01, 2.985915839672088623e-01, -8.830597251653671265e-02
2.283864468336105347e-02, 3.188032805919647217e-01, -5.261227488517761230e-02, 4.554953798651695251e-02, -2.157551944255828857e-01, -9.521543234586715698e-02, -1.685946434736251831e-01, -2.749394774436950684e-01, 1.084329262375831604e-01, 2.430265545845031738e-01, -3.158192634582519531e-01, 1.311817914247512817e-01, -4.064263030886650085e-02, -9.443237632513046265e-02, 2.394212177023291588e-03, -1.261400133371353149e-01
1.053010523319244385e-01, -1.863695234060287476e-01, 8.774170279502868652e-02, -2.157615274190902710e-01, 1.156623736023902893e-01, -1.348717212677001953e-01, -1.895797997713088989e-01, 1.218019984662532806e-03, 1.521146744489669800e-01, 2.387196570634841919e-02, -9.449166804552078247e-02, 2.449852181598544121e-03, 1.534464806318283081e-01, 1.158591508865356445e-01, 8.114370703697204590e-02, 1.935249567031860352e-01
-4.247216507792472839e-02, 1.617731302976608276e-01, -2.734773792326450348e-02, 1.306437700986862183e-01, 5.987294018268585205e-02, -2.023236155509948730e-01, -2.018793374300003052e-01, -3.085449039936065674e-01, -5.219944566488265991e-02, -1.265625506639480591e-01, 1.300797909498214722e-01, -2.018602788448333740e-01, 1.564928516745567322e-02, -6.105214357376098633e-03, -4.504345953464508057e-01, 2.350541204214096069e-01
1.991221755743026733e-01, -2.662004716694355011e-02, -1.743633598089218140e-01, -1.040138229727745056e-01, -1.368207782506942749e-01, -2.075382322072982788e-01, 4.538613557815551758e-02, 1.718474365770816803e-02, -9.576012939214706421e-02, 1.382221579551696777e-01, 1.171759068965911865e-01, 3.803443163633346558e-02, 3.258134052157402039e-02, 1.982492059469223022e-01, -2.894339561462402344e-01, 2.054617255926132202e-01
3.975068032741546631e-01, 4.993652552366256714e-02, -3.005725331604480743e-02, -7.658433169126510620e-02, -7.035426050424575806e-02, 2.898514270782470703e-01, -8.537589758634567261e-02, -1.273075211793184280e-02, 6.259601563215255737e-02, -2.067615240812301636e-01, 8.062158594839274883e-04, 1.988580524921417236e-01, -1.375782340764999390e-01, 1.522312313318252563e-01, -8.907695114612579346e-02, 3.004361316561698914e-02
1.448881626129150391e-01, 1.846148520708084106e-01, -8.794121444225311279e-02, -2.370719164609909058e-01, -1.126649752259254456e-01, -2.623920701444149017e-02, -2.822196111083030701e-03, -5.925498902797698975e-02, -6.549238692969083786e-03, 3.075056970119476318e-01, 3.269035369157791138e-02, 6.331314146518707275e-02, 2.678815722465515137e-01, -1.522625423967838287e-02, 6.806063652038574219e-02, 1.278476417064666748e-01
-7.371167093515396118e-02, 4.558463394641876221e-02, 2.275462634861469269e-02, -1.360495984554290771e-01, -1.054108366370201111e-01, 8.769248425960540771e-02, 6.781893223524093628e-02, -9.910441935062408447e-02, 2.624706625938415527e-01, 3.193047270178794861e-02, -1.371911317110061646e-01, -1.314024776220321655e-01, -8.616448938846588135e-02, -4.537081345915794373e-02, -4.399890080094337463e-02, 1.940979361534118652e-01
3.092534542083740234e-01, 1.946195513010025024e-01, 1.112738996744155884e-01, -1.269271075725555420e-01, -9.373787790536880493e-02, -2.079149186611175537e-01, -7.800722122192382812e-02, -6.640204228460788727e-03, 1.942929625511169434e-01, 6.522753089666366577e-02, 2.668392658233642578e-01, 4.205631092190742493e-02, 5.161088705062866211e-02, -1.246045380830764771e-01, -1.905491799116134644e-01, 6.792943179607391357e-02
-2.280952036380767822e-01, -6.034793704748153687e-02, 1.347551792860031128e-01, 1.718088388442993164e-01, -7.659115642309188843e-02, 2.948580980300903320e-01, 3.169535696506500244e-01, 2.923899292945861816e-01, -1.154018938541412354e-01, -2.654651403427124023e-01, 8.749929815530776978e-02, -5.885106325149536133e-02, -1.586234122514724731e-01, 1.935718059539794922e-01, 2.755685448646545410e-01, -2.220354527235031128e-01
-2.829834222793579102e-01, -2.957172989845275879e-01, -4.266158863902091980e-02, 4.843030497431755066e-02, 2.878324873745441437e-02, 2.570799887180328369e-01, -1.634736806154251099e-01, -1.150918528437614441e-01, 1.413612812757492065e-01, -2.619531154632568359e-01, 7.085295766592025757e-02, 8.541097491979598999e-02, 9.273128211498260498e-02, 1.432075444608926773e-02, 1.413012892007827759e-01, -4.033547937870025635e-01
-8.734972774982452393e-02, -8.762889355421066284e-02, 1.172817796468734741e-01, 1.307547092437744141e-01, 1.778438687324523926e-01, 6.239997968077659607e-02, 1.806644797325134277e-01, -1.814791560173034668e-01, 1.484367996454238892e-01, 1.125783100724220276e-01, -2.660560309886932373e-01, 2.438023313879966736e-02, -2.931196056306362152e-02, 8.790242671966552734e-02, -2.189526110887527466e-01, -3.445209562778472900e-01
1.997233331203460693e-01, -1.921105384826660156e-01, -1.575577557086944580e-01, -7.209042459726333618e-02, -6.990719120949506760e-03, 1.485950946807861328e-01, -5.347949638962745667e-02, -6.226188316941261292e-02, -2.694267034530639648e-01, -8.782942593097686768e-02, 2.040791064500808716e-01, -1.839832216501235962e-01, 2.695890609174966812e-03, -2.659681811928749084e-02, -1.809878945350646973e-01, -6.830980628728866577e-02
-5.455015972256660461e-02, 6.528365612030029297e-02, -8.840721845626831055e-02, 2.682660520076751709e-01, 1.636483222246170044e-01, -1.311520040035247803e-01, -1.863462030887603760e-01, 8.080673962831497192e-02, -2.539471387863159180e-01, -3.172994554042816162e-01, 1.905443668365478516e-01, 2.542962431907653809e-01, -1.571495682001113892e-01, -5.634746700525283813e-02, 3.255053609609603882e-02, -5.788545310497283936e-02
-1.758036613464355469e-01, -1.184371188282966614e-01, -1.127039790153503418e-01, 5.491679161787033081e-02, -1.350798606872558594e-01, -3.350688144564628601e-03, -1.196365579962730408e-01, 9.892515093088150024e-02, -8.785247802734375000e-02, 4.647029936313629150e-02, -4.587494954466819763e-02, 2.961933314800262451e-01, -3.336767852306365967e-01, -3.902001306414604187e-03, 3.859345614910125732e-02, -1.377340126782655716e-02
-1.381714195013046265e-01, -7.240188866853713989e-02, -3.452133238315582275e-01, -3.120584972202777863e-02, -8.756566047668457031e-02, -2.908223494887351990e-02, 3.242694959044456482e-02, 2.036821655929088593e-02, 3.028241917490959167e-02, -1.158596575260162354e-01, 6.871600449085235596e-02, 3.344211354851722717e-02, -4.720566421747207642e-02, 1.253567636013031006e-01, -1.986517161130905151e-01, 4.500284045934677124e-02
-1.705166846513748169e-01, -1.845791637897491455e-01, 7.405520975589752197e-02, 1.325521916151046753e-01, 2.267540544271469116e-01, -1.258440613746643066e-01, -1.020204201340675354e-01, -4.090781882405281067e-02, -4.215819761157035828e-02, 2.528588473796844482e-02, -1.124229729175567627e-01, 1.861681640148162842e-01, -2.881205976009368896e-01, 1.072915792465209961e-01, 7.597995549440383911e-02, -4.782494902610778809e-02
-6.675603985786437988e-02, 9.091253578662872314e-02, 1.326853036880493164e-01, -1.530322730541229248e-01, -3.484559804201126099e-02, 7.163635641336441040e-02, 1.035343334078788757e-01, -2.180251032114028931e-01, 3.340370953083038330e-01, -1.369171887636184692e-01, -2.282911390066146851e-01, -1.631341874599456787e-01, 2.337214797735214233e-01, -3.332110121846199036e-03, -2.905767858028411865e-01, -9.164131246507167816e-03
4.333483278751373291e-01, 1.446665376424789429e-01, 2.190997302532196045e-01, 7.276251167058944702e-02, 1.079662665724754333e-01, -2.008406668901443481e-01, -1.796426177024841309e-01, -4.511881619691848755e-02, 2.732865512371063232e-01, -1.208311170339584351e-01, 2.696325182914733887e-01, 1.038765311241149902e-01, 3.312596082687377930e-01, -9.101092070341110229e-02, -1.266734153032302856e-01, 2.413624823093414307e-01
-2.272802293300628662e-01, 2.808202989399433136e-02, -8.168495446443557739e-02, 2.446760050952434540e-02, -1.372509598731994629e-01, -2.126396298408508301e-01, -2.036525309085845947e-01, -6.899868696928024292e-02, 1.792517602443695068e-01, 3.108676075935363770e-01, -1.556379646062850952e-01, 1.301691085100173950e-01, 2.154239565134048462e-01, -2.641538679599761963e-01, -2.963865995407104492e-01, -2.675737738609313965e-01
5.487801507115364075e-02, 1.651799082756042480e-01, -1.398658901453018188e-01, -3.839730471372604370e-02, 1.923642009496688843e-01, -1.770942807197570801e-01, 9.277470409870147705e-02, -2.425991185009479523e-02, -8.486877381801605225e-02, -3.469225466251373291e-01, 4.025898501276969910e-02, -1.016239225864410400e-01, 5.770438001491129398e-04, 1.558299213647842407e-01, -9.691741317510604858e-02, 5.114655476063489914e-03
-1.632818579673767090e-01, -1.121624112129211426e-01, 9.264316409826278687e-03, 1.702195703983306885e-01, -1.764385253190994263e-01, -1.431527435779571533e-01, 2.777007520198822021e-01, 5.035554245114326477e-02, -2.152003794908523560e-01, 5.443087965250015259e-02, 2.570920884609222412e-01, -3.801084309816360474e-02, 7.120092865079641342e-03, -1.231359690427780151e-01, 9.472594410181045532e-02, -9.892560541629791260e-02
4.501934722065925598e-02, 1.262462735176086426e-01, 1.348552852869033813e-01, 8.119421452283859253e-02, -1.450205873697996140e-02, -1.290969848632812500e-01, -1.187890246510505676e-01, 6.218893826007843018e-02, -5.719151720404624939e-02, -2.232591062784194946e-01, -1.567106544971466064e-01, -2.958941459655761719e-01, -1.498714983463287354e-01, -1.170029714703559875e-01, 1.378305405378341675e-01, -2.068495303392410278e-01
1.779488623142242432e-01, -1.533944308757781982e-01, -5.409117043018341064e-02, -3.345445170998573303e-02, 4.516645520925521851e-02, 2.844178974628448486e-01, 1.204209998250007629e-01, 7.549183815717697144e-02, 3.667902201414108276e-02, -1.525180786848068237e-01, 2.700515985488891602e-01, -2.623940445482730865e-02, -7.888321578502655029e-02, -8.982592821121215820e-02, 1.646044850349426270e-01, 9.792894870042800903e-02
-2.130044996738433838e-01, 1.329665631055831909e-01, 7.711189240217208862e-02, -1.719837193377315998e-03, 1.490115374326705933e-01, 8.582026511430740356e-02, -1.127026323229074478e-02, -9.786862134933471680e-02, 1.483074277639389038e-01, 2.129906266927719116e-01, 2.670291811227798462e-02, -1.799121685326099396e-02, 1.916141510009765625e-01, 1.087938845157623291e-01, -6.943553686141967773e-02, 3.262987360358238220e-03
2.828701436519622803e-01, 6.838597357273101807e-02, 4.765403270721435547e-02, 1.481798440217971802e-01, -1.240368783473968506e-01, -1.004911512136459351e-01, 3.593500005081295967e-03, -4.872032254934310913e-02, -8.549651503562927246e-02, -2.593182027339935303e-01, -1.422034054994583130e-01, 5.714559182524681091e-02, -2.265859842300415039e-01, 7.053573429584503174e-02, 8.741931617259979248e-02, -1.116116270422935486e-01
4.949754104018211365e-02, 3.134477436542510986e-01, -1.932915151119232178e-01, -1.043521761894226074e-01, -2.040148228406906128e-01, -7.876399904489517212e-02, 6.336927413940429688e-02, -2.074616849422454834e-01, -3.555299714207649231e-02, -1.924123615026473999e-02, -1.153396144509315491e-01, -2.052233964204788208e-01, -1.353194266557693481e-01, -1.311477869749069214e-01, -5.515085160732269287e-02, 7.052601128816604614e-02
1.701364479959011078e-02, 2.161227632313966751e-03, 6.625191122293472290e-02, -1.845750659704208374e-01, -1.455571651458740234e-01, -1.431579291820526123e-01, -1.345261931419372559e-01, 1.791460067033767700e-01, -1.949759870767593384e-01, 2.863273918628692627e-01, -7.781574130058288574e-02, 1.104683130979537964e-01, 2.620453238487243652e-01, 3.904324024915695190e-02, -4.987395554780960083e-02, -2.085392922163009644e-01
1.384970247745513916e-01, -1.241445392370223999e-01, 5.483154579997062683e-02, -6.743134558200836182e-02, 6.717763841152191162e-02, 2.292263358831405640e-01, 1.317908167839050293e-01, 4.761473089456558228e-02, 1.207647845149040222e-01, -2.563949227333068848e-01, -1.928353309631347656e-02, -2.551657855510711670e-01, 2.774904668331146240e-01, 5.417221039533615112e-02, -5.747243389487266541e-02, 1.055101677775382996e-01
-2.284655123949050903e-01, 1.290318071842193604e-01, 2.659944072365760803e-02, -2.702941000461578369e-02, 1.640694588422775269e-01, 1.724949926137924194e-01, 4.115573689341545105e-02, 1.338124275207519531e-01, -2.683625221252441406e-01, 1.485102176666259766e-01, -7.361524552106857300e-02, 2.190601080656051636e-01, 3.716038167476654053e-02, -1.725028082728385925e-02, 2.997864484786987305e-01, -1.095252931118011475e-01
-1.405081450939178467e-01, 5.839603021740913391e-02, -3.321828320622444153e-02, 1.222550943493843079e-01, 4.238408431410789490e-02, -7.765213400125503540e-02, 2.942358260042965412e-04, -3.175163865089416504e-01, -2.438608556985855103e-02, -1.116824075579643250e-01, 2.337036095559597015e-02, -2.984400093555450439e-01, 6.936908513307571411e-02, 1.213151291012763977e-01, 1.305689569562673569e-03, 3.308153152465820312e-02
1.187391579151153564e-01, 1.157446578145027161e-01, 8.683835715055465698e-02, 2.056338489055633545e-01, 8.583387732505798340e-02, 1.835926473140716553e-01, 1.314598172903060913e-01, 5.146220792084932327e-03, -1.833390742540359497e-01, -1.931328475475311279e-01, -2.994581870734691620e-02, -1.442408263683319092e-01, -2.708715498447418213e-01, 1.496248412877321243e-02, -2.498206794261932373e-01, 4.279290139675140381e-01
-8.630506694316864014e-02, 2.403455972671508789e-02, 2.235781252384185791e-01, 1.038308739662170410e-01, -2.059305608272552490e-01, 2.200531661510467529e-01, -7.701160758733749390e-02, -2.375480085611343384e-01, 1.215789914131164551e-01, -2.113817259669303894e-02, -1.654709503054618835e-02, 2.801322340965270996e-01, -1.292093992233276367e-01, -1.381564885377883911e-01, -1.308888942003250122e-01, 1.101698204874992371e-01
-2.248942293226718903e-02, 1.439023166894912720e-01, 2.529962658882141113e-01, 2.455265820026397705e-01, -2.499798126518726349e-02, 1.206956710666418076e-02, 2.253825515508651733e-01, -9.710965305566787720e-02, -2.522477507591247559e-01, 8.078586310148239136e-02, 2.855263948440551758e-01, -1.294764280319213867e-01, 1.884155720472335815e-01, 1.919931620359420776e-01, 1.135713830590248108e-01, -1.408501267433166504e-01
-1.259492635726928711e-01, -1.472607105970382690e-01, -1.847818791866302490e-01, 7.380850613117218018e-02, 2.540602982044219971e-01, -7.577066868543624878e-02, 1.584788858890533447e-01, 8.169077336788177490e-02, 1.004547923803329468e-01, -4.466078057885169983e-02, 2.880367934703826904e-01, 9.648428857326507568e-02, -1.508416086435317993e-01, 1.750686615705490112e-01, -5.645105242729187012e-02, -2.542043924331665039e-01
2.330435514450073242e-01, 1.980896890163421631e-01, 8.389771729707717896e-02, -5.607372522354125977e-02, 1.802194714546203613e-01, 1.022530719637870789e-01, 1.667943038046360016e-02, 2.224811613559722900e-01, -1.857649683952331543e-01, -1.994804292917251587e-01, 7.073901593685150146e-02, 5.499055236577987671e-02, 2.580355703830718994e-01, -5.916453525424003601e-02, -3.628628551959991455e-01, 8.391609042882919312e-02
4.669376835227012634e-02, 2.236284911632537842e-01, 6.600537151098251343e-02, 2.216931581497192383e-01, 2.107203453779220581e-01, 5.939665064215660095e-02, -1.222753226757049561e-01, -6.926161795854568481e-02, 3.573703020811080933e-02, -1.100352872163057327e-02, 1.251645684242248535e-01, 1.583972722291946411e-01, -3.616416081786155701e-02, -8.721134066581726074e-02, -1.270135790109634399e-01, -2.373625636100769043e-01
3.000707924365997314e-01, -2.734048962593078613e-01, -9.937161207199096680e-02, -1.191180646419525146e-01, -1.856762915849685669e-01, 2.355320304632186890e-01, -3.091338835656642914e-02, 9.132301807403564453e-02, -2.636496424674987793e-01, -2.173669785261154175e-01, -2.650826238095760345e-02, -1.902199387550354004e-01, -6.683985143899917603e-02, -9.930909425020217896e-02, -5.871402472257614136e-02, -1.970230787992477417e-01
1.664494723081588745e-01, -2.019502073526382446e-01, -2.457974106073379517e-02, 2.045262455940246582e-01, -3.235238045454025269e-02, 1.631028801202774048e-01, 1.700498014688491821e-01, 7.298194617033004761e-02, -2.564207613468170166e-01, -2.764719128608703613e-01, 7.688768953084945679e-02, 5.266835540533065796e-02, -2.582194507122039795e-01, 2.190584242343902588e-01, -1.236046403646469116e-01, -1.836726665496826172e-01
1.507489979267120361e-01, 1.800583153963088989e-01, 2.067923396825790405e-01, -1.505344957113265991e-01, 1.923867017030715942e-01, 1.630271039903163910e-02, -2.264228016138076782e-01, -7.155391573905944824e-02, -2.383854053914546967e-02, 1.944039762020111084e-01, 1.213396638631820679e-01, 3.030413985252380371e-01, 1.544140279293060303e-01, -8.041042834520339966e-02, -8.688375353813171387e-03, -8.622482419013977051e-02
7.353027164936065674e-02, 8.797477930784225464e-02, -2.843555994331836700e-02, -1.005009040236473083e-01, -2.019906193017959595e-01, -2.928247451782226562e-01, -1.492458879947662354e-01, 2.298252284526824951e-01, 2.002943605184555054e-01, -1.499555110931396484e-01, 2.908251248300075531e-02, 2.171953022480010986e-01, -2.759843505918979645e-02, 8.915797621011734009e-02, 4.573393985629081726e-02, 3.451107814908027649e-02
1.572953164577484131e-01, -4.770451784133911133e-02, -1.347872465848922729e-01, -1.357515603303909302e-01, 4.844641312956809998e-02, -4.676879197359085083e-02, -1.036822870373725891e-01, 6.748221069574356079e-02, -2.947641313076019287e-01, -2.378155291080474854e-01, 2.442393079400062561e-02, -8.456218987703323364e-02, -3.306798338890075684e-01, 2.857376337051391602e-01, 3.787786066532135010e-01, -1.875804215669631958e-01
3.121928572654724121e-01, -1.231098547577857971e-01, 1.167437434196472168e-01, 2.688461169600486755e-02, 2.775947749614715576e-02, 2.931873872876167297e-02, -6.102143600583076477e-02, 2.859618067741394043e-01, 2.272563241422176361e-02, -1.305289119482040405e-01, 1.439823508262634277e-01, 6.175485998392105103e-02, 2.330866642296314240e-02, -1.421795338392257690e-01, -5.264891684055328369e-02, -2.602345049381256104e-01
4.094550386071205139e-02, 6.953062862157821655e-02, -4.962091520428657532e-02, 1.434155404567718506e-01, 1.033698618412017822e-01, -6.606815755367279053e-02, -6.686224043369293213e-02, 9.260039776563644409e-03, 1.027151644229888916e-01, -4.234442859888076782e-02, 9.598015993833541870e-02, -1.281901150941848755e-01, -1.481558196246623993e-02, 1.266297698020935059e-01, 1.615139842033386230e-01, 2.179437726736068726e-01
-8.022231608629226685e-02, 3.331201896071434021e-02, -1.493414342403411865e-01, -1.906382739543914795e-01, 1.434816122055053711e-01, 4.104618914425373077e-03, 1.989637911319732666e-01, 2.022425979375839233e-01, 6.334178149700164795e-02, -8.250120282173156738e-02, -7.409997284412384033e-02, 2.333954125642776489e-01, 5.896827206015586853e-02, 3.830244019627571106e-02, -1.088629215955734253e-01, 5.917462706565856934e-02
9.512145072221755981e-02, 1.068726461380720139e-02, -1.106808185577392578e-01, 8.402085304260253906e-02, 1.079692468047142029e-01, -1.632070094347000122e-01, -5.724801123142242432e-02, 9.880807250738143921e-02, 2.752303183078765869e-01, -1.383051127195358276e-01, -1.190278381109237671e-01, 2.989768385887145996e-01, 8.627466857433319092e-02, -7.317795604467391968e-02, 1.895089000463485718e-01, 3.100142180919647217e-01
-1.827096194028854370e-02, 8.749996870756149292e-02, -7.684447802603244781e-03, -2.462365478277206421e-01, -1.544622937217354774e-03, -2.713310718536376953e-01, -1.850143373012542725e-01, -3.377371281385421753e-02, -4.199377819895744324e-02, 2.705714404582977295e-01, 4.820462316274642944e-02, 2.296684682369232178e-01, 4.485903680324554443e-02, -1.967733167111873627e-02, -3.356108069419860840e-02, 2.121789455413818359e-01
3.241816759109497070e-01, -8.094021677970886230e-02, 7.765700668096542358e-02, 7.338207960128784180e-02, -1.801044344902038574e-01, -2.767001390457153320e-01, 2.749291434884071350e-02, -4.726734757423400879e-02, -1.661661416292190552e-01, 1.371870636940002441e-01, -4.935804381966590881e-02, -1.706155762076377869e-02, -4.182123020291328430e-02, 1.908501684665679932e-01, -2.220962382853031158e-02, 7.667914032936096191e-02
2.048160433769226074e-01, 2.610292732715606689e-01, -1.293967664241790771e-01, -1.106318682432174683e-01, -3.017579950392246246e-02, -1.435888111591339111e-01, 8.771275728940963745e-02, 1.366308778524398804e-01, 1.686697453260421753e-02, 9.460175037384033203e-02, -1.463848352432250977e-01, 9.654900431632995605e-02, 1.771145462989807129e-01, 1.197712421417236328e-01, 3.217889964580535889e-01, 1.817658394575119019e-01
