{5.401213765144348145e-01, 5.045348778367042542e-02, 5.092555284500122070e-01, -1.921818703413009644e-01, 3.819361627101898193e-01, 5.301008224487304688e-01, -5.494726896286010742e-01, 1.397656053304672241e-01},
{-3.300153315067291260e-01, 3.680666983127593994e-01, 4.832463264465332031e-01, 3.034871518611907959e-01, -6.354787349700927734e-01, 4.891902804374694824e-01, 1.431106179952621460e-01, -1.312247812747955322e-01},
{-3.723532855510711670e-01, -6.805734038352966309e-01, 9.059820324182510376e-02, -1.725917607545852661e-01, 1.453635841608047485e-01, 3.867229819297790527e-01, 1.957480423152446747e-02, -2.539730072021484375e-01},
{3.147889971733093262e-01, 3.195490241050720215e-01, -9.812008589506149292e-02, -4.079425036907196045e-01, -4.613523781299591064e-01, 2.362232208251953125e-01, 2.258087843656539917e-01, 4.991627931594848633e-01},
{3.127458393573760986e-01, -4.393490962684154510e-03, -2.485878951847553253e-02, -3.993062376976013184e-01, 7.225816696882247925e-02, 5.685452222824096680e-01, 4.110560119152069092e-01, -1.364059597253799438e-01},    
{-2.848815917968750000e-01, 1.344939172267913818e-01, -3.775802552700042725e-01, 1.249215826392173767e-01, -1.802286952733993530e-01, 2.403013780713081360e-02, 3.863729834556579590e-01, 5.254796743392944336e-01},     
{-1.775700300931930542e-01, -3.867160379886627197e-01, -1.683952957391738892e-01, 2.533591687679290771e-01, -3.055258989334106445e-01, 5.671744942665100098e-01, 1.581402570009231567e-01, 1.518623679876327515e-01},    
{3.070674836635589600e-01, 1.794317662715911865e-01, 1.613632142543792725e-01, 1.232883185148239136e-01, 7.212418317794799805e-01, 2.044485658407211304e-01, -2.979241013526916504e-01, -2.350088208913803101e-01},      
{5.227799415588378906e-01, 2.733894884586334229e-01, 2.019576728343963623e-01, -5.504710674285888672e-01, -4.513077810406684875e-02, -3.801668882369995117e-01, 4.230768978595733643e-01, 4.951417148113250732e-01},     
{5.150464549660682678e-02, 5.276983380317687988e-01, -4.937955737113952637e-01, 4.467514753341674805e-01, -2.744899690151214600e-01, 3.237629234790802002e-01, 5.135415792465209961e-01, -2.789129316806793213e-01},     
{5.865147113800048828e-01, -5.996054410934448242e-01, 2.315827831625938416e-02, 2.027361989021301270e-01, -3.610383570194244385e-01, 2.871060073375701904e-01, 4.970609247684478760e-01, 6.945166736841201782e-02},      
{-1.811647266149520874e-01, 3.150056600570678711e-01, -9.022666513919830322e-02, 2.909259200096130371e-01, 1.679579764604568481e-01, -4.995042681694030762e-01, 4.704992771148681641e-01, -4.735948443412780762e-01},    
{5.663390159606933594e-01, 9.663664735853672028e-03, -2.506226003170013428e-01, -4.948311448097229004e-01, -4.907182157039642334e-01, -2.251396188512444496e-03, 6.517696976661682129e-01, 6.097754240036010742e-01},    
{-7.105396687984466553e-02, -3.328479528427124023e-01, 5.053452849388122559e-01, 4.718796014785766602e-01, -3.725902140140533447e-01, 3.831496834754943848e-01, -1.756217479705810547e-01, 5.877285823225975037e-02},    
{-2.572563588619232178e-01, 3.902012109756469727e-02, 4.788471758365631104e-01, 4.485217630863189697e-01, 4.557955563068389893e-01, -1.989254653453826904e-01, 5.639615058898925781e-01, 4.595327973365783691e-01},      
{2.789607942104339600e-01, 4.275667965412139893e-01, 3.050977587699890137e-01, 5.140846595168113708e-02, -1.294296048581600189e-02, 4.710478484630584717e-01, -5.572396516799926758e-02, -4.148420691490173340e-01}