8.021221160888671875e-01, -2.881578207015991211e-01, -1.608270555734634399e-01, -7.987198233604431152e-02, -7.316007018089294434e-01
1.538613252341747284e-02, 8.005397319793701172e-01, -2.802881002426147461e-01, 6.834307312965393066e-01, 5.520887672901153564e-03
3.712664172053337097e-02, -6.857766509056091309e-01, 6.173785328865051270e-01, 1.208442896604537964e-01, -3.504926562309265137e-01
-8.279050588607788086e-01, -8.783181309700012207e-01, 9.141159653663635254e-01, 2.351532280445098877e-01, -4.226909577846527100e-01
1.280040144920349121e-01, 2.800348103046417236e-01, 6.480154991149902344e-01, -4.986853897571563721e-01, -3.532787859439849854e-01
7.449093461036682129e-01, 4.913046658039093018e-01, -2.345785200595855713e-01, 3.292414247989654541e-01, 3.682235628366470337e-02
2.146363407373428345e-01, -2.103948295116424561e-01, 1.935795098543167114e-01, -3.898042142391204834e-01, 8.301039934158325195e-01
-4.809445738792419434e-01, -8.514420390129089355e-01, -5.993642807006835938e-01, 1.489640772342681885e-01, -2.019086480140686035e-01
