{1.282605081796646118e-01, 8.166866749525070190e-02, 4.217011630535125732e-01, 4.285245239734649658e-01, -5.884330868721008301e-01},
{-6.672284603118896484e-01, -3.773913979530334473e-01, 3.338404297828674316e-01, 5.993459820747375488e-01, -3.869371488690376282e-02},
{-7.297889590263366699e-01, 1.359657198190689087e-01, 4.526560008525848389e-01, -2.956353127956390381e-01, 2.627116814255714417e-02},
{-1.738010644912719727e-01, 1.029402464628219604e-01, -6.539453864097595215e-01, -6.964266896247863770e-01, 4.137857258319854736e-01},
{3.888198733329772949e-01, 6.865167021751403809e-01, -3.520193397998809814e-01, -7.260463237762451172e-01, -8.757770657539367676e-01},
{5.832404494285583496e-01, -1.052304729819297791e-01, 6.756265163421630859e-01, -3.973232805728912354e-01, 4.058341383934020996e-01},
{4.684984385967254639e-01, -2.785221040248870850e-01, -8.138985633850097656e-01, 1.868914254009723663e-02, 8.540391176939010620e-02},
{8.749553561210632324e-01, -3.866456076502799988e-02, -3.412476480007171631e-01, -7.702234387397766113e-01, -8.460039496421813965e-01}