-1.188745975494384766e+00 -2.411930561065673828e+00 -6.772303581237792969e-01 1.623216509819030762e+00 -5.810459256172180176e-01 -1.040407299995422363e+00 -6.883285641670227051e-01 -7.486893236637115479e-02 -1.930553764104843140e-01 -5.388055443763732910e-01 -7.385174632072448730e-01 -2.283879667520523071e-01 7.197940945625305176e-01 1.468966156244277954e-01 2.070790529251098633e+00 1.525816768407821655e-01
4.069539308547973633e-01 -1.222075894474983215e-01 -1.739573925733566284e-01 -2.173370216041803360e-03 1.665933847427368164e+00 1.053012162446975708e-01 -1.581708908081054688e+00 -2.525483965873718262e-01 -7.280242443084716797e-01 -8.274912089109420776e-02 5.686816573143005371e-01 7.952544093132019043e-01 -3.235319852828979492e-01 -4.535656571388244629e-01 4.917208850383758545e-01 -1.819911718368530273e+00
-1.083459734916687012e+00 -7.417041659355163574e-01 -6.364865899085998535e-01 5.892531275749206543e-01 -4.672223329544067383e-01 1.375603318214416504e+00 -2.329400479793548584e-01 1.468242287635803223e+00 5.071938633918762207e-01 -5.996381640434265137e-01 5.251225456595420837e-02 6.596403717994689941e-01 -1.413835167884826660e+00 -1.155686616897583008e+00 5.804224014282226562e-01 1.156767725944519043e+00
-1.137260556221008301e+00 3.385534742847084999e-03 -5.739766955375671387e-01 -1.605461835861206055e-01 1.364648044109344482e-01 4.465149641036987305e-01 5.882959961891174316e-01 2.167784273624420166e-01 -5.699242949485778809e-01 3.538917303085327148e-01 -1.131172895431518555e+00 9.305651783943176270e-01 1.747156381607055664e-01 1.731961220502853394e-01 -4.486238062381744385e-01 2.908489704132080078e-01
2.390172518789768219e-02 -1.762459725141525269e-01 8.028028160333633423e-02 -1.074528321623802185e-02 2.563078142702579498e-02 -6.798623502254486084e-02 -7.440873980522155762e-02 4.448789358139038086e-01 -5.001045018434524536e-02 5.520171523094177246e-01 -3.029345273971557617e-01 -9.978892654180526733e-02 1.392557471990585327e-01 8.144970238208770752e-02 2.530186474323272705e-01 -1.128934547305107117e-01
-4.586651921272277832e-01 9.851966053247451782e-02 1.301829457283020020e+00 8.230915069580078125e-01 -2.112825959920883179e-01 -1.266654133796691895e-01 -4.923829808831214905e-02 9.234847426414489746e-01 5.940201878547668457e-01 -2.987006306648254395e-01 5.783343315124511719e-01 1.048609852790832520e+00 -5.054996013641357422e-01 1.524265766143798828e+00 -5.410587191581726074e-01 -4.410868287086486816e-01
