-5.175723433494567871e-01 -9.214203357696533203e-01 1.117131233215332031e+00 -1.004868388175964355e+00 2.280294597148895264e-01 -1.979269504547119141e+00 8.743876218795776367e-02 1.903322637081146240e-01
4.050100743770599365e-01 -1.613901615142822266e+00 9.844964742660522461e-02 -4.791650176048278809e-01 -1.895979523658752441e+00 1.810792386531829834e-01 4.842672944068908691e-01 -2.229018211364746094e+00
5.300867557525634766e-01 -1.793304800987243652e+00 -6.129438281059265137e-01 -3.881672024726867676e-02 1.309482336044311523e+00 5.169438719749450684e-01 -4.680829346179962158e-01 -9.800542593002319336e-01
6.574261188507080078e-01 -7.183282971382141113e-01 1.166497349739074707e+00 1.449914097785949707e+00 -2.497159242630004883e-01 9.844927191734313965e-01 -5.912493467330932617e-01 -3.912099078297615051e-02
-1.683165132999420166e-01 -1.076340824365615845e-01 3.471548855304718018e-01 -2.042882740497589111e-01 2.913409471511840820e-01 -2.267015457153320312e+00 1.540744602680206299e-01 -2.200229644775390625e+00
1.527516245841979980e+00 -8.901668190956115723e-01 1.236992001533508301e+00 6.961562633514404297e-01 1.649132370948791504e-01 6.757705807685852051e-01 -4.597417116165161133e-01 1.283611804246902466e-01
-1.648372858762741089e-01 -9.159602969884872437e-02 -4.921572804450988770e-01 1.131500005722045898e+00 1.401819109916687012e+00 1.312797069549560547e-01 6.866797804832458496e-01 4.055957794189453125e-01
1.044421195983886719e+00 1.050304621458053589e-01 7.408678531646728516e-01 9.139755964279174805e-01 -4.766273796558380127e-01 2.183335572481155396e-01 6.101976037025451660e-01 4.445560872554779053e-01
-8.378608226776123047e-01 8.565737605094909668e-01 9.525942802429199219e-02 5.069621801376342773e-01 -2.432975023984909058e-01 2.206447571516036987e-01 6.362899541854858398e-01 1.340054631233215332e+00
3.984081745147705078e-01 3.352464437484741211e-01 -1.409988105297088623e-01 2.378195151686668396e-02 5.320569127798080444e-02 -4.497682750225067139e-01 1.367110133171081543e+00 -2.848154902458190918e-01
5.843897461891174316e-01 -6.252791881561279297e-01 3.836090564727783203e-01 2.827901244163513184e-01 -4.233107566833496094e-01 1.251276373863220215e+00 2.486374415457248688e-02 -1.032354116439819336e+00
8.284347057342529297e-01 7.988929748535156250e-01 8.213369250297546387e-01 -9.837214350700378418e-01 1.402197033166885376e-01 -2.932410538196563721e-01 3.473968012258410454e-03 8.614389896392822266e-01
7.310138344764709473e-01 -6.017104387283325195e-01 -1.123694777488708496e+00 -6.127564311027526855e-01 -3.054634034633636475e-01 8.299335837364196777e-01 -1.962482094764709473e+00 6.340121030807495117e-01
-5.023449659347534180e-01 6.261948347091674805e-01 5.354466438293457031e-01 -6.974060088396072388e-02 -4.341619014739990234e-01 -8.199405074119567871e-01 9.171710163354873657e-02 8.987329006195068359e-01
1.302064657211303711e-01 4.713749885559082031e-01 -7.842794805765151978e-02 -2.072216749191284180e+00 6.857445240020751953e-01 -1.163267850875854492e+00 3.267254531383514404e-01 5.653706192970275879e-02
5.645165443420410156e-01 6.377672553062438965e-01 1.020496129989624023e+00 -4.287129342555999756e-01 -1.558593392372131348e+00 4.161389470100402832e-01 7.219588160514831543e-01 4.392861425876617432e-01
